<?xml version="1.0"?>
<opencv_storage>
<opencv_ml_svm>
  <format>3</format>
  <svmType>ONE_CLASS</svmType>
  <kernel>
    <type>RBF</type>
    <gamma>1.</gamma></kernel>
  <nu>4.0000000000000001e-02</nu>
  <term_criteria><epsilon>9.9999999999999995e-07</epsilon>
    <iterations>10000</iterations></term_criteria>
  <var_count>324</var_count>
  <class_count>1</class_count>
  <sv_total>195</sv_total>
  <support_vectors>
    <_>
      1.18071064e-01 2.47706011e-01 2.47706011e-01 7.55924657e-02
      1.12788267e-01 5.96032329e-02 6.45417422e-02 6.16210960e-02
      1.06749445e-01 2.25653753e-01 2.47706011e-01 2.38886774e-01
      3.34427878e-02 6.09999187e-02 5.75331748e-02 1.51565760e-01
      2.47706011e-01 2.47706011e-01 1.04791597e-01 2.47185066e-01
      2.47706011e-01 1.07770592e-01 1.03396490e-01 6.53809607e-02
      6.76415339e-02 6.52433112e-02 9.49878842e-02 1.95997953e-01
      2.47706011e-01 2.47706011e-01 7.96248466e-02 6.42941147e-02
      4.92707640e-02 1.47355035e-01 2.47706011e-01 2.47706011e-01
      1.04453839e-01 2.43761897e-01 2.49568418e-01 9.70188901e-02
      9.60681736e-02 6.33793101e-02 6.71335980e-02 6.33039847e-02
      9.39792469e-02 1.93972483e-01 2.49568418e-01 2.49568418e-01
      7.12759718e-02 5.87396137e-02 4.78600487e-02 1.42736107e-01
      2.49568418e-01 2.49568418e-01 9.21897963e-02 1.66638270e-01
      2.49568418e-01 1.64181799e-01 1.11117780e-01 7.26066828e-02
      7.48854876e-02 8.83299187e-02 1.05145447e-01 1.61962494e-01
      2.49568418e-01 2.49568418e-01 1.61595628e-01 8.16535801e-02
      6.03107437e-02 1.65979609e-01 2.49568418e-01 2.49568418e-01
      9.01420489e-02 1.62520513e-01 2.47321561e-01 1.61271051e-01
      1.10667393e-01 7.04178140e-02 7.20479712e-02 8.44012648e-02
      1.01758942e-01 1.59749120e-01 2.47321561e-01 2.47321561e-01
      1.55900225e-01 8.09550434e-02 5.91901392e-02 1.56488225e-01
      2.47321561e-01 2.47321561e-01 8.50205868e-02 1.76580757e-01
      2.47321561e-01 1.63496345e-01 1.04606755e-01 7.80886188e-02
      7.41765201e-02 9.34877396e-02 8.77045318e-02 1.62461758e-01
      2.47321561e-01 2.47321561e-01 1.45583063e-01 8.54541436e-02
      7.27066919e-02 1.91740051e-01 2.47321561e-01 2.47321561e-01
      8.17674249e-02 1.68378815e-01 2.44761273e-01 1.60140902e-01
      1.00166552e-01 7.19628409e-02 6.91354200e-02 8.97617787e-02
      8.51967558e-02 1.55243367e-01 2.44761273e-01 2.44761273e-01
      1.45635843e-01 8.24407637e-02 6.98488131e-02 1.88992500e-01
      2.44761273e-01 2.44761273e-01 8.76798704e-02 1.94917232e-01
      2.14131057e-01 2.11263359e-01 1.67606086e-01 7.12569058e-02
      6.46060780e-02 7.73273259e-02 8.19886401e-02 1.77272454e-01
      2.44761273e-01 2.17570677e-01 1.38157889e-01 9.51979905e-02
      5.18823229e-02 1.83796838e-01 2.44761273e-01 2.44761273e-01
      8.43001232e-02 1.89681411e-01 2.02108979e-01 1.93881243e-01
      1.58084080e-01 7.12180361e-02 6.48762658e-02 7.47144446e-02
      7.56380484e-02 1.70727283e-01 2.46987388e-01 2.08231419e-01
      1.29829898e-01 8.91421512e-02 5.01316674e-02 1.75671086e-01
      2.46987388e-01 2.46987388e-01 1.06845357e-01 2.04881430e-01
      1.98396683e-01 1.96498096e-01 1.88884974e-01 5.36711700e-02
      3.16766128e-02 6.32219985e-02 1.40350446e-01 2.19067752e-01
      2.46987388e-01 2.11593151e-01 1.33020669e-01 9.63304639e-02
      4.34561223e-02 1.32234946e-01 2.46987388e-01 2.46987388e-01
      9.48805735e-02 1.86061978e-01 1.81469798e-01 1.84343249e-01
      1.71746641e-01 4.93196808e-02 2.96796709e-02 5.61010949e-02
      1.21732481e-01 1.93864405e-01 2.49957919e-01 1.92936033e-01
      1.25058606e-01 8.83309916e-02 3.98231111e-02 1.23157315e-01
      2.49957919e-01 2.49957919e-01 1.18243836e-01 2.49957919e-01
      2.49957919e-01 1.15197726e-01 1.39154181e-01 6.42717034e-02
      4.09066826e-02 6.96104467e-02 1.40559778e-01 2.44632989e-01
      2.49957919e-01 2.49124691e-01 5.49091212e-02 5.02964593e-02
      4.78518717e-02 1.20788120e-01 2.49957919e-01 2.49957919e-01
      1.05735801e-01 2.32423022e-01 2.49104738e-01 1.01851329e-01
      1.19236141e-01 5.58229461e-02 3.64799686e-02 6.30505458e-02
      1.28616422e-01 2.17796370e-01 2.49104738e-01 2.19185591e-01
      4.98228632e-02 4.41292785e-02 4.17430103e-02 1.06959760e-01
      2.49104738e-01 2.49104738e-01 1.16136640e-01 2.49104738e-01
      2.49104738e-01 9.98054594e-02 1.05199061e-01 6.62463829e-02
      5.52573986e-02 7.21065402e-02 1.36548460e-01 2.34142274e-01
      2.49104738e-01 2.49104738e-01 5.62433451e-02 3.78496982e-02
      3.49212959e-02 1.50639281e-01 2.49104738e-01 2.49104738e-01
      1.08803093e-01 2.43014708e-01 2.47395635e-01 9.52979624e-02
      1.01669967e-01 6.20085485e-02 4.96762879e-02 6.72897920e-02
      1.28140822e-01 2.18977094e-01 2.47395635e-01 2.34761328e-01
      5.29519953e-02 3.63448039e-02 3.25714909e-02 1.32590532e-01
      2.47395635e-01 2.47395635e-01 1.21243618e-01 2.47395635e-01
      2.47395635e-01 8.98954049e-02 9.47564393e-02 7.44502172e-02
      6.83666393e-02 5.46272099e-02 1.05805144e-01 2.47395635e-01
      2.47395635e-01 2.31949136e-01 5.56273535e-02 3.65359932e-02
      2.60722358e-02 1.64356574e-01 2.47395635e-01 2.47395635e-01
      1.13193549e-01 2.48022899e-01 2.48022899e-01 8.61106887e-02
      9.03921723e-02 6.90494999e-02 6.15131743e-02 5.02364822e-02
      9.80698243e-02 2.48022899e-01 2.48022899e-01 2.21933722e-01
      5.31898811e-02 3.47886607e-02 2.41625383e-02 1.57307759e-01
      2.48022899e-01 2.48022899e-01 1.24401614e-01 2.48022899e-01
      2.48022899e-01 9.42149982e-02 8.75697657e-02 6.95730522e-02
      5.56979962e-02 4.53959666e-02 8.76844600e-02 2.48022899e-01
      2.48022899e-01 2.48022899e-01 4.53414768e-02 3.12294625e-02
      3.02725006e-02 1.28242314e-01 2.48022899e-01 2.48022899e-01</_>
    <_>
      2.51454800e-01 2.42494181e-01 2.10677192e-01 3.81818265e-02
      1.66339204e-02 7.61178229e-03 3.37564461e-02 1.34859294e-01
      2.30245113e-01 2.51454800e-01 2.38857314e-01 1.29562303e-01
      1.43957566e-02 6.54031383e-03 1.08360341e-02 1.21909410e-01
      2.51454800e-01 2.51454800e-01 1.35800853e-01 2.51454800e-01
      2.51454800e-01 9.66689065e-02 6.94580451e-02 5.35013452e-02
      4.87340167e-02 1.04185678e-01 9.49154198e-02 2.15749353e-01
      2.51454800e-01 1.87762737e-01 4.19043414e-02 2.31696609e-02
      3.40656899e-02 1.58993468e-01 2.51454800e-01 2.38778234e-01
      1.36174157e-01 2.64709711e-01 2.64709711e-01 9.56651717e-02
      6.74001351e-02 5.04485518e-02 4.61573862e-02 1.03167161e-01
      9.67236087e-02 2.15863675e-01 2.64709711e-01 1.90041497e-01
      4.11191210e-02 2.26413030e-02 3.32258306e-02 1.62666380e-01
      2.64709711e-01 2.35213071e-01 1.15327261e-01 2.64709711e-01
      2.35772938e-01 1.08831197e-01 9.39098820e-02 5.57414182e-02
      5.06429486e-02 8.17947909e-02 8.53375122e-02 2.13366240e-01
      2.64709711e-01 1.94064930e-01 4.45682704e-02 3.73471566e-02
      3.97398844e-02 1.21335939e-01 2.64709711e-01 2.64709711e-01
      1.13809571e-01 2.66952604e-01 2.26052448e-01 9.86859873e-02
      8.82296786e-02 5.44595532e-02 5.09080254e-02 8.21934789e-02
      8.42918381e-02 2.06523031e-01 2.66952604e-01 1.86046928e-01
      4.12080735e-02 3.45867686e-02 3.67848091e-02 1.16083048e-01
      2.66952604e-01 2.66952604e-01 1.07721113e-01 2.66952604e-01
      2.32003644e-01 9.19917747e-02 1.02111205e-01 5.26384339e-02
      6.35568574e-02 7.63986856e-02 8.22976902e-02 2.37784296e-01
      2.66952604e-01 2.24471241e-01 3.93230543e-02 4.11561690e-02
      3.55107412e-02 1.26776233e-01 2.66952604e-01 2.66952604e-01
      9.99653861e-02 2.57718325e-01 2.17414856e-01 9.08242539e-02
      9.50937942e-02 4.84387167e-02 5.88145815e-02 7.08313882e-02
      7.71535188e-02 2.17828095e-01 2.57718325e-01 2.07855284e-01
      3.82208861e-02 3.87267843e-02 3.44474390e-02 1.17840268e-01
      2.57718325e-01 2.53651112e-01 1.15688063e-01 2.57718325e-01
      2.57718325e-01 7.12680072e-02 1.07114822e-01 6.25384524e-02
      8.77880603e-02 9.24433619e-02 8.55544657e-02 2.48025179e-01
      2.57718325e-01 2.57718325e-01 2.94884685e-02 4.03055437e-02
      2.58367229e-02 1.19288497e-01 2.57718325e-01 2.55719095e-01
      9.68181863e-02 2.19302312e-01 2.43147299e-01 6.02255091e-02
      8.67308229e-02 4.92711738e-02 6.77529424e-02 7.34863281e-02
      7.16432706e-02 2.07409099e-01 2.43147299e-01 2.43147299e-01
      2.51527075e-02 3.29045951e-02 2.11838204e-02 1.01344883e-01
      2.43147299e-01 2.12432295e-01 2.00205848e-01 2.43147299e-01
      2.40360573e-01 6.55530542e-02 7.00401589e-02 5.53127229e-02
      1.64255083e-01 2.30807319e-01 1.42086595e-01 2.43147299e-01
      2.43147299e-01 2.38304645e-01 1.21761831e-02 2.41992008e-02
      2.16507148e-02 1.00925155e-01 2.43147299e-01 2.43147299e-01
      1.66573048e-01 2.38876566e-01 2.01324329e-01 5.41323833e-02
      6.25909343e-02 5.02760150e-02 1.37270719e-01 1.91524863e-01
      1.18177302e-01 2.38876566e-01 2.38876566e-01 2.03521520e-01
      1.02962088e-02 2.15678606e-02 1.93920750e-02 8.61851946e-02
      2.38876566e-01 2.35163450e-01 2.17092544e-01 2.38876566e-01
      2.28596792e-01 4.36245315e-02 1.92129500e-02 2.58681718e-02
      1.15707405e-01 2.38876566e-01 1.79360762e-01 2.38876566e-01
      2.38876566e-01 8.23745430e-02 2.37289560e-03 7.90556520e-03
      2.32593808e-02 1.39533982e-01 2.38876566e-01 2.38876566e-01
      2.11271539e-01 2.43328810e-01 2.30354533e-01 4.45156321e-02
      1.89050082e-02 2.75663212e-02 1.19095355e-01 2.43328810e-01
      1.71025977e-01 2.40433767e-01 2.43328810e-01 8.70631710e-02
      1.86233083e-03 5.30286552e-03 2.18308829e-02 1.41014189e-01
      2.43328810e-01 2.43328810e-01 1.82937473e-01 2.43328810e-01
      2.43328810e-01 7.19146952e-02 3.88677567e-02 3.32639962e-02
      8.07317346e-02 2.43328810e-01 1.82714656e-01 1.43814191e-01
      1.32209584e-01 5.88200800e-02 3.91430967e-02 4.81406376e-02
      7.49336928e-02 2.39081025e-01 2.43328810e-01 2.12770864e-01
      2.11867005e-01 2.40573093e-01 2.40573093e-01 7.85449967e-02
      3.79880331e-02 3.56653854e-02 9.27014500e-02 2.40573093e-01
      2.08532497e-01 1.65659964e-01 1.51612803e-01 6.53794035e-02
      3.97317745e-02 4.75015678e-02 8.14789236e-02 2.40573093e-01
      2.40573093e-01 2.40573093e-01 2.10527986e-01 2.40573093e-01
      2.01914847e-01 8.43010992e-02 9.02561098e-02 6.57580718e-02
      1.01744890e-01 2.15809628e-01 2.15820208e-01 1.64251819e-01
      1.66073292e-01 1.24275565e-01 7.88516551e-02 8.78669843e-02
      6.99717775e-02 1.58851475e-01 2.40573093e-01 2.03270629e-01
      2.53006876e-01 2.53006876e-01 2.53006876e-01 1.27223760e-01
      1.36770576e-01 1.02483377e-01 1.57344759e-01 2.53006876e-01
      2.53006876e-01 2.53006876e-01 2.53006876e-01 1.96269423e-01
      1.24417320e-01 1.35021552e-01 1.07548751e-01 2.43610993e-01
      2.53006876e-01 2.53006876e-01 1.78801253e-01 1.26981422e-01
      9.67679918e-02 5.02197817e-02 8.01202133e-02 5.19650429e-02
      8.75872374e-02 1.15179330e-01 1.78530216e-01 1.60477668e-01
      1.20741740e-01 9.31902304e-02 5.37827760e-02 6.19891547e-02
      3.03920880e-02 7.48603716e-02 9.28131640e-02 1.23522155e-01</_>
    <_>
      1.13455817e-01 2.06519842e-01 2.45540887e-01 5.99462725e-02
      5.16736992e-02 5.39565608e-02 1.31050557e-01 2.50079989e-01
      1.57744288e-01 1.41729340e-01 1.37685925e-01 8.21759403e-02
      2.94247176e-02 3.44973803e-02 7.71758780e-02 2.62833983e-01
      2.62833983e-01 2.62833983e-01 1.00329012e-01 2.23722890e-01
      2.62833983e-01 7.15940967e-02 3.85818221e-02 5.83937690e-02
      1.63674146e-01 2.62833983e-01 1.25510395e-01 1.54076263e-01
      1.47344440e-01 1.00254968e-01 4.07857709e-02 4.20493372e-02
      7.71679729e-02 2.29858443e-01 2.62833983e-01 2.62833983e-01
      9.36983898e-02 2.08552316e-01 2.63597250e-01 6.58784583e-02
      3.65282856e-02 5.26632555e-02 1.47719100e-01 2.55537987e-01
      1.17130294e-01 1.42502829e-01 1.34974658e-01 9.28788409e-02
      3.76559831e-02 3.74720953e-02 6.97932169e-02 2.15378448e-01
      2.63597250e-01 2.63597250e-01 7.30113164e-02 2.28600949e-01
      2.63597250e-01 8.35622177e-02 4.78633977e-02 5.42237684e-02
      1.77842602e-01 2.63597250e-01 1.02544986e-01 1.41681418e-01
      1.50219575e-01 1.29483908e-01 4.48364243e-02 4.02108245e-02
      6.10287227e-02 2.63597250e-01 2.63597250e-01 2.63597250e-01
      6.78221956e-02 2.03297302e-01 2.56797016e-01 7.61291385e-02
      4.45508547e-02 5.09195141e-02 1.65537447e-01 2.60661453e-01
      9.46035162e-02 1.31608367e-01 1.35619178e-01 1.14852197e-01
      4.13908027e-02 3.81372906e-02 5.68925031e-02 2.35940427e-01
      2.60661453e-01 2.60661453e-01 6.57707453e-02 2.32998461e-01
      2.60661453e-01 7.39697590e-02 6.45148605e-02 5.43201193e-02
      1.78086922e-01 2.60661453e-01 1.03069492e-01 1.28790125e-01
      1.64347440e-01 1.49802148e-01 3.52230184e-02 3.25153396e-02
      4.88962829e-02 2.60661453e-01 2.60661453e-01 2.60661453e-01
      6.28708601e-02 2.29236588e-01 2.62360424e-01 6.94645271e-02
      6.19127415e-02 5.13485074e-02 1.67029515e-01 2.53372997e-01
      9.79556218e-02 1.22516744e-01 1.57254040e-01 1.41293108e-01
      3.28057259e-02 3.18771638e-02 4.67565507e-02 2.62360424e-01
      2.62360424e-01 2.62360424e-01 6.69661909e-02 2.40415841e-01
      2.41553426e-01 8.58695954e-02 8.34430233e-02 7.66691417e-02
      1.47605866e-01 2.31932223e-01 1.15078010e-01 1.30784944e-01
      1.63086414e-01 1.40490115e-01 3.59688848e-02 3.25006470e-02
      5.34412153e-02 2.29334325e-01 2.62360424e-01 2.62360424e-01
      6.55073300e-02 2.35477641e-01 2.37056553e-01 7.97220990e-02
      7.79437199e-02 7.49207735e-02 1.47190019e-01 2.32668519e-01
      1.12363286e-01 1.28908411e-01 1.62002400e-01 1.39924362e-01
      3.54733728e-02 3.18327174e-02 5.16465306e-02 2.20035017e-01
      2.65027076e-01 2.65027076e-01 8.78785849e-02 2.40806103e-01
      2.50715226e-01 8.19182768e-02 7.77204484e-02 1.02455616e-01
      1.43420175e-01 2.11944833e-01 1.34659946e-01 1.69613034e-01
      1.83945253e-01 1.41449720e-01 3.34032178e-02 3.38740014e-02
      5.54240569e-02 2.34106317e-01 2.65027076e-01 2.65027076e-01
      8.14158916e-02 2.23872662e-01 2.34121144e-01 7.96726272e-02
      7.68853202e-02 9.68027189e-02 1.33833855e-01 1.96980700e-01
      1.24110013e-01 1.57303005e-01 1.71154231e-01 1.30678341e-01
      3.15207206e-02 3.29230726e-02 5.33929095e-02 2.24634394e-01
      2.64960825e-01 2.64960825e-01 6.60810098e-02 2.26674393e-01
      2.64960825e-01 9.85971242e-02 6.15262166e-02 7.12435469e-02
      1.94502756e-01 2.20449939e-01 1.02385662e-01 1.52936369e-01
      1.74444228e-01 1.60212964e-01 3.96749564e-02 3.41902561e-02
      5.62474318e-02 2.40588546e-01 2.64960825e-01 2.64960825e-01
      5.99337928e-02 2.07196057e-01 2.60268331e-01 8.97835717e-02
      5.68090677e-02 6.30350336e-02 1.74258381e-01 2.06325233e-01
      9.39602479e-02 1.37780935e-01 1.58957854e-01 1.49447292e-01
      3.63691673e-02 3.09171993e-02 5.01519293e-02 2.21000463e-01
      2.60268331e-01 2.60268331e-01 6.80081323e-02 2.57755339e-01
      2.32964188e-01 9.57309753e-02 7.77026787e-02 6.53737485e-02
      2.21030623e-01 2.05122784e-01 8.78712833e-02 1.65032700e-01
      1.84603050e-01 1.44861251e-01 5.09232432e-02 3.97978462e-02
      5.57310358e-02 2.48772174e-01 2.60268331e-01 2.60268331e-01
      6.24745488e-02 2.32433498e-01 2.17664793e-01 8.96603018e-02
      7.42115974e-02 6.45203888e-02 2.12656513e-01 1.95645764e-01
      8.13496858e-02 1.54221416e-01 1.68445870e-01 1.38712734e-01
      4.84286994e-02 3.80087718e-02 5.44455126e-02 2.29923069e-01
      2.53865600e-01 2.53865600e-01 9.47598070e-02 2.53865600e-01
      1.84516832e-01 7.33814016e-02 8.27837065e-02 9.10075158e-02
      1.96177587e-01 1.82673708e-01 1.20995268e-01 1.99781284e-01
      2.49110863e-01 1.03351802e-01 3.28659266e-02 2.50837263e-02
      5.41779809e-02 2.52459913e-01 2.53865600e-01 2.53865600e-01
      8.79694000e-02 2.56170839e-01 1.76667467e-01 7.05104694e-02
      7.82235339e-02 8.43308643e-02 1.80954129e-01 1.66418195e-01
      1.10865638e-01 1.85484037e-01 2.29783311e-01 9.69985723e-02
      3.14895101e-02 2.36857813e-02 5.14665693e-02 2.41299868e-01
      2.56170839e-01 2.56170839e-01 9.63374302e-02 2.56170839e-01
      2.19421178e-01 6.31145239e-02 7.75072724e-02 9.51323807e-02
      1.57602489e-01 1.60560310e-01 1.22105993e-01 1.94267422e-01
      2.56170839e-01 1.37473449e-01 2.01562643e-02 2.75726188e-02
      5.34751043e-02 2.15619072e-01 2.56170839e-01 2.56170839e-01</_>
    <_>
      2.50460297e-01 2.52784073e-01 1.84940696e-01 5.99690899e-02
      3.68486233e-02 3.99550162e-02 1.26498893e-01 2.52784073e-01
      1.75751895e-01 1.44885570e-01 1.22660525e-01 6.38150796e-02
      9.58119035e-02 8.63559246e-02 5.81771359e-02 2.52784073e-01
      2.52784073e-01 1.61993071e-01 2.52784073e-01 2.52784073e-01
      2.35235050e-01 5.31870313e-02 4.59624566e-02 6.15219027e-02
      1.39451548e-01 2.52784073e-01 1.62365198e-01 1.38350099e-01
      1.02885447e-01 6.62258342e-02 9.58607420e-02 6.75624162e-02
      1.13366090e-01 2.52784073e-01 2.52784073e-01 1.22632444e-01
      2.46147096e-01 2.54277080e-01 2.13246047e-01 4.90917154e-02
      4.54488210e-02 6.07561097e-02 1.31698355e-01 2.54277080e-01
      1.57429799e-01 1.34724826e-01 1.00137390e-01 6.38168305e-02
      9.80288759e-02 6.61643147e-02 1.06736526e-01 2.54277080e-01
      2.54277080e-01 1.20353274e-01 2.21992821e-01 2.54277080e-01
      2.54277080e-01 1.29838496e-01 1.05278954e-01 1.01213656e-01
      1.11832544e-01 1.69292793e-01 1.33626729e-01 1.16520584e-01
      1.62772909e-01 8.78523365e-02 4.88168448e-02 7.43450522e-02
      1.98093176e-01 2.54277080e-01 2.54277080e-01 1.01488359e-01
      1.99199066e-01 2.52507061e-01 2.41933063e-01 1.14207730e-01
      9.66582149e-02 9.40522924e-02 1.05793484e-01 1.58192560e-01
      1.18837662e-01 1.03593662e-01 1.45791441e-01 7.88217932e-02
      4.69842665e-02 6.80057630e-02 1.83615923e-01 2.52507061e-01
      2.52507061e-01 8.93431678e-02 2.01581284e-01 2.52507061e-01
      2.09959134e-01 1.40449792e-01 1.02095701e-01 8.00653771e-02
      6.03516623e-02 1.25762925e-01 1.52850986e-01 2.06397325e-01
      2.52507061e-01 1.33791015e-01 6.65709153e-02 6.04984351e-02
      8.32220912e-02 2.52507061e-01 2.52507061e-01 2.12197587e-01
      1.78393915e-01 2.52586216e-01 1.94913313e-01 1.33011013e-01
      9.09103379e-02 7.08318353e-02 5.49583472e-02 1.11204349e-01
      1.33907244e-01 1.80763066e-01 2.52586216e-01 1.21001378e-01
      6.01170845e-02 5.39003871e-02 7.90799186e-02 2.52586216e-01
      2.52586216e-01 1.83056444e-01 1.74926341e-01 2.52586216e-01
      2.21293062e-01 1.25540510e-01 7.69393221e-02 7.28258565e-02
      6.38131946e-02 1.23924337e-01 1.20173238e-01 2.10485131e-01
      2.52586216e-01 1.33845493e-01 6.55947104e-02 4.87554222e-02
      4.31718193e-02 2.52586216e-01 2.52586216e-01 2.19508648e-01
      1.62288010e-01 2.57107288e-01 2.06096530e-01 1.17786966e-01
      6.85760155e-02 6.34712055e-02 5.75998649e-02 1.13663934e-01
      1.12396687e-01 1.96964428e-01 2.57107288e-01 1.23974986e-01
      5.86025901e-02 4.36364152e-02 4.04937752e-02 2.57107288e-01
      2.57107288e-01 2.05759019e-01 1.75715357e-01 2.57107288e-01
      2.34217837e-01 1.16650172e-01 7.30812550e-02 7.41934925e-02
      7.21505135e-02 1.41084149e-01 1.02249220e-01 1.93752632e-01
      2.57107288e-01 1.27070948e-01 5.92216179e-02 5.28386422e-02
      6.31951243e-02 2.57107288e-01 2.57107288e-01 1.87342525e-01
      1.65275738e-01 2.57225692e-01 2.11013854e-01 1.07536890e-01
      7.10449889e-02 7.30049461e-02 6.90000802e-02 1.32785082e-01
      9.53719914e-02 1.81914225e-01 2.57225692e-01 1.19334064e-01
      5.70484363e-02 5.06761894e-02 5.89186251e-02 2.57225692e-01
      2.57225692e-01 1.75195083e-01 1.63262308e-01 2.57225692e-01
      2.33458847e-01 1.04497768e-01 7.87038654e-02 7.93221742e-02
      7.16369078e-02 1.50240928e-01 1.26976833e-01 1.87396303e-01
      2.57225692e-01 1.07936278e-01 5.97173087e-02 7.19933212e-02
      8.71837735e-02 2.57225692e-01 2.57225692e-01 2.09776983e-01
      1.46093979e-01 2.52492517e-01 2.22639441e-01 9.91099253e-02
      7.07119107e-02 7.32588395e-02 6.65685683e-02 1.36773139e-01
      1.12723470e-01 1.67153388e-01 2.52492517e-01 1.01677403e-01
      5.47578335e-02 6.51291162e-02 7.96598643e-02 2.52492517e-01
      2.52492517e-01 1.86947018e-01 1.75646365e-01 2.52492517e-01
      2.52492517e-01 6.35468587e-02 8.82751793e-02 9.31926891e-02
      7.84922913e-02 1.54104084e-01 1.29761487e-01 1.81805357e-01
      2.52492517e-01 1.10220358e-01 4.31257971e-02 8.37246105e-02
      1.09371789e-01 2.52492517e-01 2.52492517e-01 2.14001194e-01
      1.63159743e-01 2.51532674e-01 2.41196185e-01 5.87139390e-02
      7.67564252e-02 8.32854956e-02 7.28455931e-02 1.42949134e-01
      1.21858925e-01 1.70170382e-01 2.51532674e-01 1.02394432e-01
      3.96398567e-02 7.32304901e-02 9.73155648e-02 2.51532674e-01
      2.51532674e-01 2.01040730e-01 1.75663993e-01 2.51532674e-01
      2.36179873e-01 5.89754656e-02 8.27424973e-02 8.73806700e-02
      9.48024467e-02 1.67581692e-01 1.25147030e-01 1.68016031e-01
      2.51532674e-01 1.01507574e-01 3.38766649e-02 8.10053796e-02
      1.06552660e-01 2.51532674e-01 2.51532674e-01 1.96168914e-01
      1.65347248e-01 2.52290338e-01 2.17299059e-01 5.67919835e-02
      8.23011771e-02 8.64348933e-02 8.73551890e-02 1.55549526e-01
      1.18578024e-01 1.58854842e-01 2.52290338e-01 9.41784307e-02
      3.16521078e-02 8.02942291e-02 1.03690691e-01 2.47889847e-01
      2.52290338e-01 1.87557161e-01 1.85441613e-01 2.52290338e-01
      2.12018296e-01 6.10905513e-02 8.51064175e-02 6.65091947e-02
      1.01201162e-01 1.93149969e-01 1.48536637e-01 1.76554397e-01
      2.48963937e-01 8.82251114e-02 4.54340503e-02 8.53223875e-02
      1.11195222e-01 2.52290338e-01 2.52290338e-01 2.04280943e-01</_>
    <_>
      1.90716296e-01 2.69707143e-01 2.69707143e-01 5.86992987e-02
      8.29928666e-02 4.49094325e-02 5.58463670e-02 1.52094856e-01
      9.85284746e-02 1.75391108e-01 2.29004145e-01 9.52783823e-02
      4.29224819e-02 7.47640505e-02 2.36259736e-02 2.26801246e-01
      2.69707143e-01 1.40966088e-01 1.72726482e-01 2.69707143e-01
      2.69707143e-01 7.18940571e-02 7.34067410e-02 4.59438153e-02
      6.79800585e-02 1.64933324e-01 1.26180336e-01 1.79820985e-01
      2.69650519e-01 1.09817840e-01 3.67582142e-02 6.45034760e-02
      2.98813507e-02 2.47940764e-01 2.69707143e-01 1.71326071e-01
      1.63540721e-01 2.67931432e-01 2.53573418e-01 6.43604100e-02
      6.57607615e-02 4.21846397e-02 6.34377971e-02 1.53966770e-01
      1.16695508e-01 1.69937715e-01 2.50305295e-01 1.00985073e-01
      3.33844274e-02 5.79007305e-02 2.70877071e-02 2.31579766e-01
      2.67931432e-01 1.57060951e-01 1.58727303e-01 2.67931432e-01
      2.62376040e-01 5.88519275e-02 7.11058527e-02 4.98464666e-02
      7.63552934e-02 1.67610765e-01 1.38245806e-01 1.87080190e-01
      2.67931432e-01 1.09653488e-01 3.47718224e-02 5.58236837e-02
      3.10590751e-02 2.61286944e-01 2.67931432e-01 1.78494483e-01
      1.48922667e-01 2.64817715e-01 2.45750383e-01 5.72991706e-02
      6.80028945e-02 4.74202484e-02 7.12307245e-02 1.56112403e-01
      1.30445689e-01 1.76199883e-01 2.64817715e-01 1.02654502e-01
      3.34783122e-02 5.37425429e-02 2.97235902e-02 2.44241849e-01
      2.64817715e-01 1.68266788e-01 1.61234781e-01 2.64817715e-01
      2.64817715e-01 4.66174372e-02 9.28481370e-02 5.51652499e-02
      8.08565095e-02 1.62289307e-01 1.07325874e-01 1.77359149e-01
      2.64817715e-01 1.11032218e-01 3.38500738e-02 6.15298189e-02
      3.82457040e-02 2.64817715e-01 2.64817715e-01 1.68184415e-01
      1.52444363e-01 2.69408971e-01 2.53714383e-01 4.35865968e-02
      8.58306587e-02 5.08789271e-02 7.58819431e-02 1.52139217e-01
      1.01753630e-01 1.67863458e-01 2.69408971e-01 1.04183927e-01
      3.14492211e-02 5.64712323e-02 3.59802507e-02 2.58898258e-01
      2.69408971e-01 1.59575209e-01 1.58449471e-01 2.69408971e-01
      2.69408971e-01 4.04347070e-02 8.37968141e-02 5.46621718e-02
      8.03405121e-02 1.75726250e-01 9.35212895e-02 1.62547573e-01
      2.69408971e-01 1.24686964e-01 3.25682461e-02 5.43012694e-02
      4.09237966e-02 2.47496173e-01 2.69408971e-01 1.47578031e-01
      1.49344727e-01 2.71210372e-01 2.53522038e-01 3.77951562e-02
      8.02259296e-02 5.17984070e-02 7.61933625e-02 1.64096802e-01
      8.90604034e-02 1.53172851e-01 2.64256179e-01 1.14857070e-01
      3.14063467e-02 5.13951331e-02 3.84862982e-02 2.29963064e-01
      2.71210372e-01 1.39468908e-01 1.63621515e-01 2.71210372e-01
      2.71210372e-01 4.46844734e-02 9.16545019e-02 7.59945735e-02
      9.28247720e-02 1.47041127e-01 9.07559916e-02 1.73368365e-01
      2.71210372e-01 1.26050681e-01 2.90840231e-02 6.54209554e-02
      5.33426367e-02 2.71210372e-01 2.71210372e-01 1.59216940e-01
      1.47724211e-01 2.70027965e-01 2.59836048e-01 4.10690382e-02
      8.36374313e-02 6.78231865e-02 8.30520019e-02 1.35653391e-01
      8.33049268e-02 1.55641347e-01 2.59733200e-01 1.15916871e-01
      2.66953669e-02 5.93123548e-02 4.98092771e-02 2.67649233e-01
      2.70027965e-01 1.43963501e-01 1.67670906e-01 2.70027965e-01
      2.47931853e-01 6.82465062e-02 8.06231424e-02 5.28646894e-02
      8.68626907e-02 1.40448451e-01 9.90476459e-02 1.90043017e-01
      2.70027965e-01 9.49430987e-02 3.08527313e-02 5.27402759e-02
      4.74837199e-02 2.69735605e-01 2.70027965e-01 1.70818627e-01
      1.57395735e-01 2.67047971e-01 2.26691663e-01 6.10673763e-02
      7.51873255e-02 5.02468161e-02 8.29919353e-02 1.30645752e-01
      9.24413651e-02 1.78404465e-01 2.67047971e-01 8.81721303e-02
      2.94963308e-02 4.90335524e-02 4.35973592e-02 2.49100402e-01
      2.67047971e-01 1.60160825e-01 2.01058745e-01 2.67047971e-01
      2.16698453e-01 7.14267492e-02 8.89721140e-02 4.12656665e-02
      8.32865164e-02 1.44439459e-01 1.07892521e-01 2.34375954e-01
      2.67047971e-01 8.61505643e-02 4.18554358e-02 4.93846610e-02
      4.39502224e-02 2.67047971e-01 2.67047971e-01 1.87237889e-01
      1.78957000e-01 2.60102093e-01 1.98952243e-01 6.67309985e-02
      8.19110051e-02 3.74890156e-02 7.62809962e-02 1.30349174e-01
      9.58455577e-02 2.09895164e-01 2.60102093e-01 7.85191059e-02
      3.84677015e-02 4.57116477e-02 4.02982272e-02 2.51095206e-01
      2.60102093e-01 1.65456429e-01 2.09888279e-01 2.60102093e-01
      2.36131102e-01 5.83860613e-02 8.35308433e-02 4.30326723e-02
      7.45949298e-02 1.16401359e-01 1.22652881e-01 2.34101102e-01
      2.60102093e-01 9.08290818e-02 3.13715935e-02 4.60460670e-02
      4.90589067e-02 2.60102093e-01 2.60102093e-01 2.16904163e-01
      1.95671484e-01 2.55357146e-01 2.17202723e-01 5.35514168e-02
      7.49941170e-02 3.93200256e-02 7.00856671e-02 1.08637869e-01
      1.15081854e-01 2.17295304e-01 2.55357146e-01 8.35842788e-02
      2.86551397e-02 4.17186394e-02 4.44912463e-02 2.53846228e-01
      2.55357146e-01 2.01218128e-01 1.91127390e-01 2.55357146e-01
      2.55357146e-01 5.36109880e-02 8.69115964e-02 4.08507846e-02
      8.86721238e-02 1.15975291e-01 1.16535231e-01 2.08310306e-01
      2.55357146e-01 1.22926153e-01 3.01609524e-02 5.83328046e-02
      4.81209643e-02 2.55357146e-01 2.55357146e-01 1.94952935e-01</_>
    <_>
      1.90424010e-01 2.41263852e-01 2.41263852e-01 8.00608844e-02
      5.35915084e-02 3.66179235e-02 6.35969788e-02 1.31183907e-01
      1.66928321e-01 1.80258915e-01 1.89802274e-01 1.35753602e-01
      4.09654975e-02 5.09179682e-02 5.22323400e-02 2.41263852e-01
      2.41263852e-01 2.41263852e-01 1.94747433e-01 2.41263852e-01
      2.41263852e-01 9.33882520e-02 6.57711402e-02 4.33389321e-02
      6.48201779e-02 1.38461292e-01 1.78056240e-01 1.90563470e-01
      2.41263852e-01 1.20534524e-01 4.37682532e-02 5.64275384e-02
      5.89671694e-02 2.41263852e-01 2.41263852e-01 2.41263852e-01
      1.75480321e-01 2.46033907e-01 2.37148881e-01 8.60354528e-02
      6.09760918e-02 3.92910503e-02 5.92265762e-02 1.26626536e-01
      1.61507830e-01 1.71862632e-01 2.23386720e-01 1.12511210e-01
      4.03633565e-02 5.24903685e-02 5.35862148e-02 2.31405631e-01
      2.46033907e-01 2.46033907e-01 2.05017865e-01 2.46033907e-01
      2.42213368e-01 8.51791129e-02 7.82487318e-02 4.73934747e-02
      5.36933094e-02 1.42266110e-01 1.63844779e-01 2.13899240e-01
      2.46033907e-01 9.26979482e-02 4.21756357e-02 4.65019718e-02
      6.12360947e-02 2.17389703e-01 2.46033907e-01 2.46033907e-01
      1.88231811e-01 2.48077437e-01 2.14518651e-01 7.29161128e-02
      7.04504624e-02 4.40923497e-02 5.09235188e-02 1.31093204e-01
      1.51109964e-01 1.95143953e-01 2.48077437e-01 8.51402134e-02
      3.82817201e-02 4.13467661e-02 5.30096851e-02 1.95094362e-01
      2.48077437e-01 2.48077437e-01 2.03764349e-01 2.48077437e-01
      2.48077437e-01 6.73590153e-02 8.26063529e-02 5.14074750e-02
      4.75569516e-02 1.44553572e-01 1.64890021e-01 2.37672761e-01
      2.48077437e-01 1.12181716e-01 4.09194641e-02 3.79476063e-02
      5.05472496e-02 1.93295509e-01 2.48077437e-01 2.48077437e-01
      1.84213981e-01 2.46379405e-01 2.46379405e-01 6.42745122e-02
      7.62142465e-02 4.67220582e-02 4.32632379e-02 1.29661873e-01
      1.48793072e-01 2.13455051e-01 2.33526871e-01 1.02292128e-01
      3.69152352e-02 3.52840573e-02 4.80462797e-02 1.80120513e-01
      2.46379405e-01 2.46379405e-01 1.87062830e-01 2.46379405e-01
      2.46379405e-01 7.25146830e-02 6.40712902e-02 6.45139292e-02
      5.02663665e-02 1.29984021e-01 1.49002835e-01 2.27878869e-01
      2.45892510e-01 1.52184114e-01 4.19877246e-02 3.36063355e-02
      5.68708405e-02 2.12820023e-01 2.46379405e-01 2.46379405e-01
      1.74739495e-01 2.46693686e-01 2.46693686e-01 6.66933507e-02
      5.74050918e-02 5.64131700e-02 4.50512543e-02 1.19787380e-01
      1.39266938e-01 2.11592942e-01 2.23427773e-01 1.38788804e-01
      3.68111208e-02 3.04479897e-02 5.13898917e-02 1.95243984e-01
      2.46693686e-01 2.46693686e-01 1.84655055e-01 2.46693686e-01
      2.46693686e-01 7.49519393e-02 7.23011494e-02 6.30636811e-02
      4.99357544e-02 1.16813071e-01 1.46560043e-01 2.19113588e-01
      2.46693686e-01 2.15658978e-01 6.54108003e-02 4.51550744e-02
      4.95558605e-02 1.60476208e-01 2.46693686e-01 2.46693686e-01
      1.84844136e-01 2.42469147e-01 2.42469147e-01 7.56457150e-02
      7.58777335e-02 6.72028959e-02 5.11580221e-02 1.19115271e-01
      1.47557884e-01 2.22493827e-01 2.42469147e-01 2.18621179e-01
      6.72934800e-02 4.42953221e-02 4.77906689e-02 1.58915758e-01
      2.42469147e-01 2.42469147e-01 2.12928042e-01 2.42469147e-01
      2.42469147e-01 1.06008947e-01 1.18943624e-01 6.18721917e-02
      4.75243852e-02 9.06995162e-02 1.24932341e-01 2.18068704e-01
      2.42469147e-01 2.42469147e-01 9.24706757e-02 4.99480218e-02
      3.35950740e-02 7.26813525e-02 2.17916936e-01 1.87728569e-01
      2.43981436e-01 2.43981436e-01 2.43981436e-01 1.22455105e-01
      1.40252441e-01 7.41373971e-02 5.64230196e-02 1.08024709e-01
      1.46538422e-01 2.43981436e-01 2.43981436e-01 2.43981436e-01
      1.13537297e-01 6.15008250e-02 4.19792794e-02 9.32457373e-02
      2.43981436e-01 2.25343645e-01 1.82297081e-01 2.43981436e-01
      2.43981436e-01 2.43981436e-01 2.43981436e-01 1.14398405e-01
      4.54440191e-02 5.84504195e-02 9.23363417e-02 1.39516279e-01
      1.81680173e-01 1.83401614e-01 1.46311596e-01 1.09877840e-01
      5.08381240e-02 1.07364533e-02 3.30587402e-02 6.82521909e-02
      2.30252832e-01 2.43279204e-01 2.43279204e-01 2.43279204e-01
      2.43279204e-01 1.36220217e-01 5.70813976e-02 7.03805760e-02
      1.14947721e-01 1.75986588e-01 2.27476001e-01 2.25248188e-01
      1.80443466e-01 1.35437414e-01 6.20482937e-02 1.50263859e-02
      4.23547290e-02 8.56025741e-02 1.55414060e-01 1.57584921e-01
      2.43279204e-01 2.43279204e-01 2.43279204e-01 1.67784989e-01
      2.37834454e-01 2.43279204e-01 1.95797175e-01 4.49921414e-02
      5.03390953e-02 1.03776485e-01 1.26714662e-01 1.35204926e-01
      7.64992237e-02 5.71447201e-02 4.08722162e-02 3.23477425e-02
      1.47318721e-01 1.48956969e-01 2.70985305e-01 2.70985305e-01
      2.70985305e-01 1.69298619e-01 2.32228652e-01 2.70985305e-01
      1.83293298e-01 4.49157543e-02 4.93977740e-02 1.00962564e-01
      1.25379533e-01 1.35764986e-01 7.74590895e-02 5.64008355e-02
      3.99056375e-02 3.15881409e-02 2.23947033e-01 1.89991400e-01
      2.01000258e-01 9.76401642e-02 1.59311011e-01 1.90525100e-01
      2.70985305e-01 2.70985305e-01 2.70985305e-01 4.73749563e-02
      4.45675775e-02 6.46481737e-02 6.45884126e-02 1.05748124e-01
      1.17022380e-01 1.30367085e-01 9.40757021e-02 3.79313789e-02</_>
    <_>
      1.55431837e-01 2.52073228e-01 2.52073228e-01 7.87558034e-02
      4.50080745e-02 4.32122648e-02 7.45150223e-02 1.29096091e-01
      1.36380136e-01 1.73554614e-01 2.31878042e-01 1.45384133e-01
      3.18556353e-02 3.74937914e-02 5.33150248e-02 1.44920349e-01
      2.52073228e-01 2.52073228e-01 1.72992095e-01 2.52073228e-01
      2.52073228e-01 9.29188579e-02 8.16562474e-02 4.75206897e-02
      6.30097613e-02 1.08733535e-01 1.42813176e-01 2.18297631e-01
      2.52073228e-01 1.63979769e-01 3.66112366e-02 3.55556682e-02
      3.82423364e-02 2.38673463e-01 2.52073228e-01 2.52073228e-01
      1.61346555e-01 2.50650346e-01 2.50650346e-01 8.22201148e-02
      7.02045262e-02 4.23106030e-02 5.68548255e-02 9.89062041e-02
      1.32215202e-01 2.02155516e-01 2.50650346e-01 1.46295786e-01
      3.24356295e-02 3.09285186e-02 3.47636342e-02 2.15670049e-01
      2.50650346e-01 2.50650346e-01 1.51470214e-01 2.50650346e-01
      2.50650346e-01 8.97388309e-02 9.43169892e-02 5.30359335e-02
      5.55462316e-02 9.48959887e-02 1.28109634e-01 2.04789788e-01
      2.50650346e-01 1.59417242e-01 3.48540954e-02 3.43248583e-02
      3.53929959e-02 2.12193057e-01 2.50650346e-01 2.50650346e-01
      1.45145103e-01 2.57302999e-01 2.57302999e-01 8.78750756e-02
      9.46968421e-02 5.14422134e-02 5.07576913e-02 9.03083161e-02
      1.22473672e-01 1.96340293e-01 2.57302999e-01 1.49792701e-01
      3.44757475e-02 3.40116806e-02 3.47336382e-02 2.00653955e-01
      2.57302999e-01 2.57302999e-01 1.50603369e-01 2.57302999e-01
      2.32138246e-01 9.65531692e-02 1.03913181e-01 5.45929074e-02
      8.07211697e-02 9.82200876e-02 1.19084880e-01 2.25193307e-01
      2.57302999e-01 1.53143615e-01 2.76017375e-02 4.77851890e-02
      3.42813507e-02 1.49161458e-01 2.57302999e-01 2.57302999e-01
      1.37449935e-01 2.56597728e-01 2.17437670e-01 8.98980945e-02
      9.78601128e-02 5.00606112e-02 7.10689947e-02 8.85896310e-02
      1.07850865e-01 2.06219539e-01 2.56597728e-01 1.42276078e-01
      2.57020947e-02 4.40820642e-02 3.20091695e-02 1.43821269e-01
      2.56597728e-01 2.56597728e-01 1.51880875e-01 2.56597728e-01
      2.56597728e-01 9.92617384e-02 9.62476805e-02 5.20084165e-02
      7.43843839e-02 8.97218883e-02 1.09550789e-01 2.56597728e-01
      2.56597728e-01 2.17134804e-01 3.67261395e-02 4.16920073e-02
      3.43012176e-02 1.38485923e-01 2.56597728e-01 2.56597728e-01
      1.37635142e-01 2.49434620e-01 2.49434620e-01 8.48047733e-02
      8.57844576e-02 4.79228273e-02 6.96005076e-02 8.40006843e-02
      1.00514956e-01 2.32427791e-01 2.49434620e-01 1.94394827e-01
      3.18855308e-02 3.66588794e-02 2.97095850e-02 1.24855056e-01
      2.49434620e-01 2.49434620e-01 1.43081143e-01 2.49434620e-01
      2.49434620e-01 9.57762599e-02 9.53991637e-02 5.38494214e-02
      7.19564781e-02 7.26483092e-02 1.10116154e-01 2.49434620e-01
      2.49434620e-01 2.37069353e-01 3.52854356e-02 3.27341557e-02
      3.07072625e-02 1.44866467e-01 2.49434620e-01 2.49434620e-01
      1.31130964e-01 2.43277341e-01 2.49103352e-01 9.20034274e-02
      8.76535177e-02 5.02779000e-02 6.61463067e-02 6.73429444e-02
      1.00706495e-01 2.49103352e-01 2.49103352e-01 2.18627647e-01
      3.30706164e-02 3.07954866e-02 2.97241081e-02 1.34099916e-01
      2.49103352e-01 2.49103352e-01 1.29429176e-01 2.49103352e-01
      2.49103352e-01 1.12154804e-01 9.22627300e-02 5.70068061e-02
      6.13460802e-02 6.54234439e-02 9.80531648e-02 2.49103352e-01
      2.49103352e-01 2.27372557e-01 4.30655591e-02 3.12446468e-02
      2.99841054e-02 1.33942932e-01 2.49103352e-01 2.49103352e-01
      1.25052601e-01 2.48900443e-01 2.48900443e-01 1.07133977e-01
      8.46054479e-02 5.15510179e-02 5.72072491e-02 6.26662597e-02
      9.38282534e-02 2.48900443e-01 2.48900443e-01 2.15355083e-01
      4.04137373e-02 2.82878764e-02 2.78534312e-02 1.29338369e-01
      2.48900443e-01 2.48900443e-01 1.03678279e-01 2.48900443e-01
      2.48900443e-01 1.32286608e-01 8.08793679e-02 6.30449429e-02
      5.15906289e-02 5.65031990e-02 8.16775337e-02 2.48900443e-01
      2.48900443e-01 2.40710422e-01 6.90444559e-02 1.10717982e-01
      6.79834783e-02 6.29725084e-02 2.48900443e-01 2.48900443e-01
      1.09040596e-01 2.45828435e-01 2.45828435e-01 1.31464571e-01
      8.66711736e-02 6.88890889e-02 5.61718345e-02 6.09416701e-02
      8.61061737e-02 2.45828435e-01 2.45828435e-01 2.43883207e-01
      6.87219799e-02 1.09059021e-01 6.86101541e-02 6.82365224e-02
      2.45828435e-01 2.45828435e-01 3.98729369e-02 1.81301817e-01
      2.45828435e-01 2.45828435e-01 2.36515388e-01 1.24624260e-01
      2.99197249e-02 2.12827921e-02 2.80193463e-02 1.45146415e-01
      2.19120204e-01 2.45828435e-01 1.54087484e-01 2.45828435e-01
      1.51265264e-01 4.26848233e-02 8.05874765e-02 1.41308889e-01
      4.25050370e-02 1.97944894e-01 2.68990695e-01 2.68990695e-01
      2.40403980e-01 1.24975853e-01 3.21971849e-02 2.34213788e-02
      2.95034479e-02 1.55708045e-01 2.38461405e-01 2.68990695e-01
      1.58295527e-01 2.68990695e-01 1.55656546e-01 4.53846827e-02
      8.68620127e-02 1.49558514e-01 2.18068343e-02 4.58303206e-02
      2.05040693e-01 2.51920462e-01 2.68990695e-01 2.68990695e-01
      4.96714860e-02 2.18316615e-02 2.16681622e-02 4.88923304e-02
      6.73813596e-02 1.30441859e-01 1.75484657e-01 2.68990695e-01
      1.87838465e-01 6.36586845e-02 4.84553613e-02 6.06255680e-02</_>
    <_>
      2.44821146e-01 2.44821146e-01 1.51937097e-01 4.80350703e-02
      3.30334418e-02 2.25951802e-02 6.13215417e-02 2.13965610e-01
      2.21670121e-01 1.99419826e-01 1.33144543e-01 4.78658974e-02
      4.18423340e-02 4.18979302e-02 7.33210444e-02 2.16293141e-01
      2.44821146e-01 2.41366968e-01 2.44821146e-01 2.44821146e-01
      1.78653091e-01 3.24185640e-02 3.56379785e-02 2.65810173e-02
      5.93528822e-02 2.44821146e-01 2.44821146e-01 1.96344241e-01
      1.25240579e-01 6.20592982e-02 6.43432885e-02 5.81855550e-02
      7.03120828e-02 2.24013090e-01 2.44821146e-01 2.43854463e-01
      2.49594852e-01 2.49594852e-01 1.70712069e-01 3.01967822e-02
      3.34676988e-02 2.44357605e-02 5.59570640e-02 2.32595637e-01
      2.42199942e-01 1.81771174e-01 1.15889221e-01 5.61464205e-02
      5.87054268e-02 5.44776358e-02 6.58826381e-02 2.13685155e-01
      2.49594852e-01 2.26144210e-01 2.49594852e-01 2.49594852e-01
      1.68827519e-01 2.75487285e-02 3.26700956e-02 2.64080986e-02
      5.63883409e-02 2.49594852e-01 2.49594852e-01 1.69197023e-01
      1.26552701e-01 5.73376790e-02 5.43113202e-02 5.22860140e-02
      7.05079809e-02 2.14169338e-01 2.49594852e-01 2.35837922e-01
      2.50429660e-01 2.50429660e-01 1.53516114e-01 2.49353610e-02
      3.04869730e-02 2.51553673e-02 5.22311963e-02 2.50429660e-01
      2.50429660e-01 1.61289349e-01 1.20985724e-01 5.58551438e-02
      5.21385334e-02 4.87357788e-02 6.42646104e-02 1.93523347e-01
      2.50429660e-01 2.25620493e-01 2.50429660e-01 2.50429660e-01
      1.65741220e-01 3.57070304e-02 3.45228463e-02 3.33310179e-02
      8.45859200e-02 2.50429660e-01 2.50429660e-01 1.56070337e-01
      1.29009411e-01 6.11560196e-02 4.94837016e-02 5.55369481e-02
      8.12842250e-02 2.24816203e-01 2.50429660e-01 2.34286621e-01
      2.51244813e-01 2.51244813e-01 1.71011820e-01 3.69499661e-02
      3.51371579e-02 3.26385796e-02 8.22813883e-02 2.51244813e-01
      2.51244813e-01 1.52184099e-01 1.27064466e-01 6.03593253e-02
      4.96570095e-02 5.50395660e-02 8.00647065e-02 2.29944408e-01
      2.51244813e-01 2.30732843e-01 2.27934018e-01 1.80766493e-01
      1.10177189e-01 4.04398814e-02 2.68189367e-02 4.28736359e-02
      1.89908832e-01 2.51244813e-01 2.51244813e-01 1.45853221e-01
      7.49624893e-02 7.08225816e-02 6.01639822e-02 6.10522740e-02
      1.02133036e-01 2.51244813e-01 2.51244813e-01 2.04969853e-01
      2.63783902e-01 2.43794352e-01 1.52854279e-01 5.44870868e-02
      3.53855006e-02 5.43649122e-02 2.42002442e-01 2.63783902e-01
      2.63783902e-01 1.94925949e-01 9.91841555e-02 9.25545767e-02
      7.55092725e-02 7.57621005e-02 1.28934070e-01 2.63783902e-01
      2.63783902e-01 2.63783902e-01 1.31446779e-01 3.98562364e-02
      3.38666067e-02 1.78110451e-02 1.63975637e-02 2.64622197e-02
      1.39551908e-01 2.63783902e-01 2.00919181e-01 1.34084508e-01
      5.03986478e-02 8.48372579e-02 6.66334629e-02 6.40034601e-02
      8.28461349e-02 2.12406576e-01 2.63783902e-01 1.95767939e-01
      3.14697683e-01 1.01088867e-01 8.41700360e-02 4.19668071e-02
      3.75345573e-02 6.18632771e-02 3.14697683e-01 3.14697683e-01
      3.14697683e-01 3.14697683e-01 1.22524962e-01 2.07890034e-01
      1.68824315e-01 1.59580529e-01 2.02130765e-01 3.14697683e-01
      3.14697683e-01 3.14697683e-01 3.03428099e-02 3.71574098e-03
      2.97316280e-03 2.95808772e-04 7.90119264e-03 5.74819918e-04
      2.05122270e-02 4.31896970e-02 4.88491282e-02 6.57197163e-02
      2.68943422e-02 3.53682935e-02 1.04628922e-02 1.79345123e-02
      9.27413348e-05 4.63125966e-02 6.58699349e-02 9.13017467e-02
      2.97965527e-01 2.94531174e-02 2.64294222e-02 5.82651934e-03
      6.17574379e-02 4.15056758e-03 1.94343239e-01 3.17118734e-01
      3.17118734e-01 3.17118734e-01 2.09715784e-01 3.05281609e-01
      1.52237892e-01 1.78984120e-01 1.89596682e-03 3.17118734e-01
      3.17118734e-01 3.17118734e-01 3.71791385e-02 1.24164056e-02
      3.65731679e-02 0. 5.12410551e-02 0. 3.81822325e-02 1.42748496e-02
      3.74527983e-02 1.05367944e-01 2.86551360e-02 7.25818798e-02
      5.18342853e-03 9.27822441e-02 5.60129853e-03 1.33303180e-01
      6.96370453e-02 1.09669261e-01 1.49079394e-02 4.61025257e-03
      1.35799898e-02 0. 1.93904713e-02 0. 1.55711584e-02 5.78357838e-03
      1.50131835e-02 4.17366624e-02 1.12220626e-02 2.88003590e-02
      2.13153148e-03 3.72668728e-02 2.36335723e-03 5.41746020e-02
      2.83317305e-02 4.35327441e-02 3.18902731e-01 3.18902731e-01
      1.57143205e-01 3.08455396e-02 1.35534212e-01 4.55833711e-02
      1.95432737e-01 2.89518744e-01 3.18902731e-01 3.18902731e-01
      2.05157220e-01 7.69194663e-02 2.24384889e-02 1.67337880e-01
      1.71076775e-01 3.18902731e-01 3.18902731e-01 3.18902731e-01
      1.16479792e-01 1.09856777e-01 2.79185865e-02 4.31502052e-03
      2.35782843e-02 5.15872939e-03 2.66153086e-02 5.15928939e-02
      8.72488320e-02 8.51806849e-02 3.94482426e-02 1.46222375e-02
      3.77017027e-03 2.77783629e-02 1.88459661e-02 6.74109533e-02
      1.23882256e-01 1.18674755e-01 2.85253793e-01 2.85253793e-01
      1.26331747e-01 4.60845418e-02 9.89097580e-02 7.08800480e-02
      2.85253793e-01 2.85253793e-01 2.85253793e-01 2.65553147e-01
      1.97974220e-01 1.17496468e-01 9.22851339e-02 1.80245847e-01
      2.58142501e-01 2.85253793e-01 2.85253793e-01 2.85253793e-01</_>
    <_>
      2.53752410e-01 2.53752410e-01 8.26418623e-02 3.12384795e-02
      3.67364362e-02 4.04332690e-02 1.52985007e-01 2.53752410e-01
      2.53752410e-01 1.01036519e-01 6.22113459e-02 6.66683242e-02
      6.72142133e-02 8.98291692e-02 8.30971524e-02 2.48208404e-01
      2.53752410e-01 1.76852152e-01 2.53752410e-01 2.53752410e-01
      8.83490443e-02 2.75248475e-02 4.23794016e-02 4.99425158e-02
      2.13369682e-01 2.53752410e-01 2.53752410e-01 9.70866904e-02
      6.51655868e-02 5.64222485e-02 6.64440766e-02 1.16669774e-01
      8.90322253e-02 2.53752410e-01 2.53752410e-01 1.51287049e-01
      2.50450581e-01 2.50450581e-01 8.85275230e-02 2.64737420e-02
      4.01948057e-02 4.71020080e-02 2.08572015e-01 2.50450581e-01
      2.50450581e-01 9.01712552e-02 6.02147840e-02 5.46469130e-02
      6.38503507e-02 1.10795997e-01 8.39230046e-02 2.50450581e-01
      2.50450581e-01 1.41088307e-01 2.50450581e-01 2.50450581e-01
      7.30766878e-02 3.07617970e-02 5.38261198e-02 5.44000156e-02
      2.50450581e-01 2.50450581e-01 2.50450581e-01 7.45818391e-02
      6.06618747e-02 5.58274388e-02 6.91726431e-02 1.23744719e-01
      9.68230888e-02 2.50450581e-01 2.50450581e-01 1.19046390e-01
      2.52213538e-01 2.52213538e-01 7.25645348e-02 2.98109185e-02
      4.95763905e-02 5.00143096e-02 2.52213538e-01 2.52213538e-01
      2.52213538e-01 7.52502680e-02 6.11283705e-02 5.51494919e-02
      6.69258684e-02 1.14557840e-01 8.89371410e-02 2.45982066e-01
      2.52213538e-01 1.19755857e-01 2.52213538e-01 2.52213538e-01
      8.12126622e-02 4.04965430e-02 5.88017888e-02 5.05883135e-02
      2.52213538e-01 2.52213538e-01 2.52213538e-01 6.05955049e-02
      5.64855784e-02 6.39786720e-02 7.55769461e-02 1.17655367e-01
      8.46276283e-02 2.52213538e-01 2.19221935e-01 1.01199545e-01
      2.58861452e-01 2.58861452e-01 7.65506625e-02 4.01932076e-02
      6.05839975e-02 5.30513860e-02 2.58861452e-01 2.58861452e-01
      2.58861452e-01 6.07663095e-02 5.53672239e-02 6.16345219e-02
      7.54061043e-02 1.21844634e-01 8.93553495e-02 2.49861822e-01
      2.14541256e-01 1.01101905e-01 2.58861452e-01 2.58861452e-01
      9.38143879e-02 4.44875322e-02 7.06406906e-02 4.82978858e-02
      2.58861452e-01 2.58861452e-01 2.58861452e-01 5.31885475e-02
      5.40884398e-02 7.76501223e-02 7.16797262e-02 1.19963326e-01
      6.64213970e-02 2.52969801e-01 1.76903978e-01 8.05569813e-02
      2.67673969e-01 2.67673969e-01 9.34097543e-02 4.35395762e-02
      7.16355816e-02 4.92434725e-02 2.67673969e-01 2.67673969e-01
      2.67673969e-01 5.19718453e-02 5.15848547e-02 7.40209445e-02
      7.03910962e-02 1.22468933e-01 6.80168942e-02 2.60160238e-01
      1.80101007e-01 7.87952915e-02 2.67673969e-01 2.48009190e-01
      7.78680742e-02 4.80148643e-02 7.64217004e-02 9.78711396e-02
      2.67673969e-01 2.67673969e-01 2.67673969e-01 5.19636720e-02
      4.97227833e-02 6.64758757e-02 6.69543892e-02 1.09105505e-01
      9.58267301e-02 2.21213192e-01 1.36043295e-01 6.82121664e-02
      2.61551827e-01 2.61551827e-01 8.60679299e-02 5.14712483e-02
      7.89387152e-02 9.69543979e-02 2.61551827e-01 2.61551827e-01
      2.61551827e-01 5.71483560e-02 5.43655120e-02 7.37677887e-02
      7.19221458e-02 1.13433532e-01 9.43810120e-02 2.24818245e-01
      1.46653548e-01 7.25298971e-02 2.33398527e-01 2.06912264e-01
      8.98581296e-02 6.74276650e-02 1.00061789e-01 1.23950474e-01
      2.61551827e-01 2.61551827e-01 2.61551827e-01 1.35118753e-01
      1.54374048e-01 8.22211131e-02 7.65723288e-02 1.15198180e-01
      1.21859014e-01 1.89264446e-01 1.47372991e-01 1.81229383e-01
      2.22529411e-01 1.87069401e-01 7.81309828e-02 6.23992942e-02
      9.36971977e-02 1.21267870e-01 2.52044469e-01 2.52044469e-01
      2.52044469e-01 1.26179293e-01 1.34778515e-01 7.07050487e-02
      7.09572732e-02 1.08439475e-01 1.17364831e-01 1.76456407e-01
      1.34808555e-01 1.65453255e-01 1.25133634e-01 2.52044469e-01
      2.14921907e-01 1.03217691e-01 8.79762471e-02 4.65447530e-02
      6.48293123e-02 1.15824610e-01 1.46683961e-01 2.52044469e-01
      2.52044469e-01 2.39580184e-01 7.06084520e-02 6.45243078e-02
      4.97946627e-02 1.85369372e-01 2.52044469e-01 2.52044469e-01
      1.00815147e-01 2.34284550e-01 1.59587100e-01 8.01718608e-02
      7.22654313e-02 4.28682752e-02 5.53473793e-02 9.35460925e-02
      1.19737819e-01 2.55094498e-01 2.67642260e-01 1.79068491e-01
      5.56563139e-02 5.37816137e-02 4.48178351e-02 1.45303801e-01
      2.60186195e-01 2.53913581e-01 1.31265700e-01 2.67642260e-01
      2.00804010e-01 1.03959583e-01 9.92850140e-02 5.36511987e-02
      5.31636961e-02 4.05256040e-02 9.68526527e-02 2.67642260e-01
      2.67642260e-01 1.86329544e-01 5.34310751e-02 4.85042967e-02
      3.51456776e-02 2.06989333e-01 2.67642260e-01 2.67642260e-01
      1.04088403e-01 2.66430289e-01 1.71385914e-01 8.77398252e-02
      7.95583725e-02 4.24223468e-02 4.30016406e-02 3.26960087e-02
      7.74087533e-02 2.66430289e-01 2.66430289e-01 1.58433542e-01
      4.55455296e-02 3.94507423e-02 2.82943044e-02 1.70250133e-01
      2.66430289e-01 2.66430289e-01 1.49216428e-01 2.66430289e-01
      1.98050097e-01 8.49746838e-02 9.51261148e-02 6.06361963e-02
      4.58258167e-02 6.36853427e-02 1.01163715e-01 2.66430289e-01
      2.66430289e-01 1.49637729e-01 4.03389633e-02 5.09915873e-02
      3.51406001e-02 1.95816830e-01 2.66430289e-01 2.66430289e-01</_>
    <_>
      2.88116187e-01 1.94786385e-01 1.24382585e-01 1.36416748e-01
      1.58210590e-01 1.65788025e-01 1.69013366e-01 2.88116187e-01
      2.88116187e-01 2.88116187e-01 1.32855222e-01 4.43692207e-02
      4.04526331e-02 6.55974597e-02 4.10008021e-02 5.43374829e-02
      1.80285394e-01 2.88116187e-01 1.40205860e-01 1.13699444e-01
      9.23130661e-02 9.94658694e-02 1.62385657e-01 1.71587497e-01
      2.88116187e-01 2.88116187e-01 2.88116187e-01 3.83075327e-02
      1.57334208e-02 2.07828414e-02 2.20230445e-02 5.09765185e-02
      3.97186093e-02 2.80386452e-02 2.21027657e-02 4.83714119e-02
      1.94185585e-01 1.55049965e-01 1.25422433e-01 1.30089581e-01
      2.05510139e-01 2.16054171e-01 3.05409044e-01 3.05409044e-01
      3.05409044e-01 5.62213883e-02 2.21500564e-02 2.85758376e-02
      3.02374642e-02 6.64882213e-02 5.06222919e-02 3.86489071e-02
      3.52281220e-02 7.53782913e-02 2.38407046e-01 1.66693196e-01
      1.44498408e-01 1.42677188e-01 2.03311622e-01 2.12591708e-01
      3.05409044e-01 3.05409044e-01 3.05409044e-01 2.72200909e-02
      2.60957815e-02 4.45005447e-02 4.38545123e-02 7.98350722e-02
      6.17319532e-02 5.84553406e-02 3.89574431e-02 1.91000942e-02
      1.92755476e-01 1.35222495e-01 1.19678691e-01 1.18234120e-01
      1.79489896e-01 1.85734659e-01 3.10716659e-01 3.10716659e-01
      3.10716659e-01 2.16677096e-02 2.05307808e-02 3.54342908e-02
      3.53237316e-02 6.81782812e-02 5.36710769e-02 4.88598160e-02
      3.18867154e-02 1.52356746e-02 2.88878441e-01 1.78547561e-01
      1.26741260e-01 1.79740861e-01 1.23117611e-01 1.83078274e-01
      3.10716659e-01 3.10716659e-01 3.10716659e-01 4.84090783e-02
      4.51152250e-02 6.27815649e-02 7.79543146e-02 8.49612951e-02
      7.41162822e-02 8.88833180e-02 6.49020672e-02 3.18375267e-02
      2.30603278e-01 1.41707674e-01 1.01259261e-01 1.43953487e-01
      1.05718158e-01 1.51934624e-01 3.14037889e-01 3.14037889e-01
      3.14037889e-01 3.88433374e-02 3.57341394e-02 5.01956157e-02
      6.18370362e-02 7.00648353e-02 6.10822812e-02 7.04995543e-02
      5.29173687e-02 2.60761920e-02 2.91682273e-01 1.71568364e-01
      9.51659381e-02 1.37980804e-01 1.29636139e-01 1.62467569e-01
      3.14037889e-01 3.14037889e-01 3.14037889e-01 4.71178629e-02
      4.28789258e-02 5.22603169e-02 7.23734275e-02 1.05293140e-01
      8.75162780e-02 1.19780108e-01 9.12729651e-02 3.41435112e-02
      2.55033672e-01 1.52341202e-01 8.51336420e-02 1.20911762e-01
      1.09574869e-01 1.32477894e-01 2.76405275e-01 3.12552869e-01
      3.12552869e-01 4.14269604e-02 3.82127389e-02 4.65480238e-02
      6.37721866e-02 8.89956206e-02 7.13620409e-02 9.64421406e-02
      7.54629225e-02 2.94555407e-02 3.12552869e-01 2.05073938e-01
      8.55986848e-02 1.13655977e-01 1.26569718e-01 1.44166112e-01
      3.03598106e-01 3.12552869e-01 3.12552869e-01 5.78129403e-02
      5.10171726e-02 4.76187728e-02 7.84740746e-02 1.11121185e-01
      9.05109197e-02 1.20152302e-01 1.06449462e-01 4.59924340e-02
      2.70802617e-01 1.70400038e-01 7.26418421e-02 9.48908478e-02
      1.08038530e-01 1.27554178e-01 2.68472433e-01 3.05467069e-01
      3.05467069e-01 4.84256893e-02 4.27579507e-02 4.05532680e-02
      6.46321699e-02 9.38747972e-02 7.94808343e-02 1.06058843e-01
      9.13139209e-02 3.78959030e-02 3.05467069e-01 2.16653481e-01
      1.06244504e-01 1.04441673e-01 1.09929092e-01 1.16275564e-01
      3.05467069e-01 3.05467069e-01 3.05467069e-01 6.31114915e-02
      4.00276296e-02 4.86223102e-02 9.56185311e-02 1.09535508e-01
      9.15874615e-02 1.34275824e-01 1.39743611e-01 6.70233443e-02
      2.78587550e-01 1.79648384e-01 8.67998153e-02 8.44195038e-02
      9.12069902e-02 1.01115339e-01 2.66025752e-01 3.05827737e-01
      3.05827737e-01 5.33490963e-02 3.34250331e-02 3.98530625e-02
      7.74156451e-02 9.07663405e-02 7.85889924e-02 1.15105957e-01
      1.15505256e-01 5.62264882e-02 3.05827737e-01 2.29487732e-01
      1.14088960e-01 7.83424526e-02 9.68839675e-02 9.33897123e-02
      2.42471337e-01 3.05827737e-01 3.05827737e-01 6.63029924e-02
      3.74359079e-02 5.12777120e-02 7.54714608e-02 1.15640283e-01
      9.14952308e-02 1.25655964e-01 2.30782926e-01 7.80065581e-02
      2.66314238e-01 1.93416476e-01 9.78097916e-02 7.07831010e-02
      8.50461200e-02 7.90468752e-02 1.98046759e-01 2.99084842e-01
      2.99084842e-01 5.62343076e-02 3.08027025e-02 4.42979373e-02
      6.78806901e-02 1.00526959e-01 7.76406527e-02 1.02081671e-01
      1.84689820e-01 6.66138306e-02 2.99084842e-01 2.85211235e-01
      1.34460047e-01 5.12213893e-02 8.46011788e-02 7.48934075e-02
      1.93193212e-01 2.99084842e-01 2.99084842e-01 6.29804805e-02
      6.22503161e-02 6.80499896e-02 5.76019734e-02 1.27059519e-01
      9.24742967e-02 1.28870457e-01 2.89569706e-01 7.26122484e-02
      2.47068122e-01 2.36150756e-01 1.12813018e-01 4.33369055e-02
      7.13689551e-02 6.24799170e-02 1.64579287e-01 2.77715087e-01
      2.77715087e-01 5.08552156e-02 4.97048944e-02 5.62536158e-02
      4.84642796e-02 1.06451645e-01 7.56640583e-02 1.07057847e-01
      2.46823072e-01 5.97628541e-02 2.77715087e-01 2.77715087e-01
      1.37120917e-01 5.75943962e-02 7.10390732e-02 5.32929674e-02
      2.59045988e-01 2.77715087e-01 2.77715087e-01 5.93470819e-02
      5.12039587e-02 5.36415353e-02 8.83787572e-02 1.14774622e-01
      8.51458088e-02 2.06055909e-01 2.77715087e-01 9.71600264e-02</_>
    <_>
      2.33973071e-01 2.33973071e-01 2.25529373e-01 5.41819036e-02
      9.33321416e-02 9.42940190e-02 1.24872357e-01 1.39058575e-01
      1.55474544e-01 1.52477384e-01 1.97007433e-01 9.71202031e-02
      8.35139900e-02 1.78298607e-01 2.07923651e-01 2.33973071e-01
      1.72634736e-01 9.58499610e-02 2.33973071e-01 2.33973071e-01
      2.33973071e-01 7.50303864e-02 1.12349264e-01 1.23559214e-01
      1.50985420e-01 1.58492014e-01 1.59359396e-01 1.45923048e-01
      1.85619205e-01 1.02271803e-01 7.85785317e-02 1.57875508e-01
      2.16150373e-01 2.33973071e-01 1.78438067e-01 9.36721936e-02
      2.39993572e-01 2.39993572e-01 2.36885414e-01 7.06123635e-02
      1.06218539e-01 1.16629139e-01 1.44929305e-01 1.55278683e-01
      1.53634295e-01 1.44916520e-01 1.83325186e-01 1.01492763e-01
      7.59298876e-02 1.51901767e-01 2.04983875e-01 2.39993572e-01
      1.75473616e-01 9.12110358e-02 2.39993572e-01 2.39993572e-01
      1.65767819e-01 6.98262304e-02 9.78060290e-02 1.43392324e-01
      1.90542698e-01 1.79462031e-01 1.63061187e-01 1.33844569e-01
      1.68267161e-01 9.51465666e-02 7.03974664e-02 1.30057290e-01
      1.96332902e-01 2.39993572e-01 1.97653204e-01 1.00437447e-01
      2.41503552e-01 2.41503552e-01 1.57996878e-01 6.85410872e-02
      9.55487639e-02 1.34470806e-01 1.81377009e-01 1.75834924e-01
      1.58774719e-01 1.29213676e-01 1.62004232e-01 9.31612775e-02
      6.68206960e-02 1.25754014e-01 1.89171717e-01 2.41503552e-01
      1.93286270e-01 9.72946063e-02 2.41503552e-01 2.41503552e-01
      1.45644978e-01 7.33029544e-02 8.14057067e-02 1.38165474e-01
      2.41503552e-01 2.35630304e-01 1.57521829e-01 1.08873419e-01
      1.28510892e-01 8.98373201e-02 8.97828564e-02 1.16472095e-01
      1.72593996e-01 2.41503552e-01 2.41503552e-01 1.00467414e-01
      2.44291067e-01 2.44291067e-01 1.40798330e-01 6.89074025e-02
      7.89054930e-02 1.35922924e-01 2.31217638e-01 2.19014287e-01
      1.47722304e-01 1.03919297e-01 1.24149047e-01 8.33407640e-02
      8.07873979e-02 1.11015767e-01 1.70021877e-01 2.44291067e-01
      2.33166680e-01 9.48387459e-02 2.38102406e-01 2.44291067e-01
      1.71410009e-01 6.88186213e-02 5.58491834e-02 1.03109911e-01
      2.44291067e-01 2.44291067e-01 1.64947137e-01 8.86734128e-02
      1.04534529e-01 8.31979960e-02 8.23264495e-02 9.96439755e-02
      1.32904559e-01 2.44291067e-01 2.44291067e-01 1.07149094e-01
      2.30673224e-01 2.44144604e-01 1.57780543e-01 6.36708364e-02
      5.33785447e-02 9.94940847e-02 2.44144604e-01 2.44144604e-01
      1.57753989e-01 8.49080905e-02 9.86777395e-02 8.16942900e-02
      8.12045857e-02 9.58136767e-02 1.26456946e-01 2.44144604e-01
      2.44144604e-01 1.01599298e-01 2.18472824e-01 2.44144604e-01
      1.67215541e-01 5.69726788e-02 5.05000129e-02 8.01886469e-02
      2.44144604e-01 2.44144604e-01 2.32492641e-01 8.01059902e-02
      9.60754380e-02 7.24909306e-02 8.08052719e-02 1.22927152e-01
      1.30040884e-01 2.44144604e-01 2.44144604e-01 1.20695964e-01
      2.03996330e-01 2.44100690e-01 1.60818681e-01 5.47376722e-02
      4.78114448e-02 7.52703100e-02 2.44100690e-01 2.44100690e-01
      2.12657079e-01 7.25234151e-02 8.65509063e-02 6.78385943e-02
      7.40569979e-02 1.14229769e-01 1.22021146e-01 2.44100690e-01
      2.44100690e-01 1.10082097e-01 2.27225959e-01 2.44100690e-01
      1.66538894e-01 4.40120026e-02 5.06752655e-02 5.02826534e-02
      2.44100690e-01 2.44100690e-01 2.44100690e-01 8.48053843e-02
      6.87388852e-02 6.13236874e-02 8.10971856e-02 1.34647951e-01
      1.06770582e-01 2.44100690e-01 2.44100690e-01 1.31902963e-01
      2.14136377e-01 2.34212860e-01 1.59217283e-01 4.19916287e-02
      4.65882681e-02 4.54792343e-02 2.32945442e-01 2.46540502e-01
      2.46540502e-01 8.31778198e-02 6.81484714e-02 5.94502836e-02
      7.72735775e-02 1.24149024e-01 9.59079340e-02 2.37729236e-01
      2.46540502e-01 1.27630129e-01 2.46540502e-01 2.31239021e-01
      1.25092760e-01 4.78554331e-02 4.88605499e-02 4.11566868e-02
      2.46540502e-01 2.46540502e-01 2.46540502e-01 1.06173061e-01
      6.00578561e-02 6.34224191e-02 8.70617181e-02 1.37641624e-01
      9.19124708e-02 2.42887154e-01 2.46540502e-01 1.34566039e-01
      2.46920183e-01 2.13128686e-01 1.18469678e-01 4.60261889e-02
      4.73924428e-02 4.03027423e-02 2.46672228e-01 2.46920183e-01
      2.46920183e-01 1.00300662e-01 5.59187606e-02 6.00159131e-02
      8.28366131e-02 1.33609384e-01 9.07469168e-02 2.31273711e-01
      2.46920183e-01 1.26685008e-01 2.46920183e-01 2.46920183e-01
      1.05100036e-01 5.76292835e-02 4.31650579e-02 4.77819704e-02
      2.46920183e-01 2.46920183e-01 2.46920183e-01 9.05237198e-02
      7.14931265e-02 7.67484233e-02 8.79297331e-02 1.02088451e-01
      1.03718668e-01 2.46920183e-01 2.46920183e-01 1.21149920e-01
      2.47088864e-01 2.47088864e-01 9.90590081e-02 5.22812903e-02
      3.97319011e-02 4.41369489e-02 2.47088864e-01 2.47088864e-01
      2.47088864e-01 8.46822783e-02 6.58498332e-02 6.88650981e-02
      7.80173242e-02 9.39996392e-02 9.57989246e-02 2.47088864e-01
      2.47088864e-01 1.14258535e-01 2.47088864e-01 2.47088864e-01
      9.47619602e-02 5.03245369e-02 4.20622192e-02 4.79503274e-02
      2.47088864e-01 2.47088864e-01 2.47088864e-01 8.12146738e-02
      7.21780136e-02 7.64308870e-02 8.20248500e-02 9.29540843e-02
      1.01546109e-01 2.47088864e-01 2.47088864e-01 1.20018065e-01</_>
    <_>
      2.83822626e-01 6.15035295e-02 3.53555717e-02 3.59850302e-02
      3.73438746e-02 4.56120968e-02 5.13441004e-02 9.35557261e-02
      2.83822626e-01 2.83822626e-01 3.24059166e-02 2.54946873e-02
      2.71185543e-02 5.30009195e-02 8.96424204e-02 4.35497575e-02
      4.60998937e-02 2.83822626e-01 2.83822626e-01 2.26356447e-01
      7.98022971e-02 6.24400340e-02 6.57108501e-02 8.85709226e-02
      2.18209416e-01 2.83822626e-01 2.83822626e-01 2.43947551e-01
      5.58373593e-02 8.07048082e-02 9.47107226e-02 1.42157465e-01
      1.82626560e-01 1.63853958e-01 1.85538024e-01 2.83822626e-01
      2.43969306e-01 2.08249792e-01 7.50231594e-02 5.96619993e-02
      6.25670031e-02 8.16704109e-02 1.98891342e-01 2.43969306e-01
      2.43969306e-01 2.38712043e-01 5.14632575e-02 7.20164105e-02
      8.57319310e-02 1.31775871e-01 1.70664102e-01 1.50023535e-01
      1.67422652e-01 2.43969306e-01 2.43969306e-01 2.43969306e-01
      7.63194486e-02 3.79943959e-02 5.36188222e-02 9.00821686e-02
      2.43969306e-01 2.43969306e-01 2.43969306e-01 6.99422881e-02
      3.60688306e-02 6.20160401e-02 7.60607347e-02 1.24829441e-01
      1.45661190e-01 2.43969306e-01 2.11211458e-01 1.22329481e-01
      2.55317688e-01 2.55317688e-01 8.10199231e-02 4.00559418e-02
      5.31509668e-02 8.74868259e-02 2.55317688e-01 2.55317688e-01
      2.55317688e-01 7.88513497e-02 3.94738168e-02 6.63418621e-02
      7.92524666e-02 1.23995513e-01 1.42584831e-01 2.55317688e-01
      2.17952862e-01 1.34883806e-01 2.55317688e-01 2.31844410e-01
      6.53428584e-02 4.47206870e-02 7.76957050e-02 1.07641824e-01
      2.55317688e-01 2.55317688e-01 2.55317688e-01 5.34105562e-02
      3.51574048e-02 4.92325462e-02 6.92934543e-02 1.30308613e-01
      1.30492687e-01 2.23319709e-01 1.57969818e-01 9.63089839e-02
      2.71220297e-01 2.44714066e-01 6.72716200e-02 4.57431562e-02
      8.36042091e-02 1.17755406e-01 2.71220297e-01 2.71220297e-01
      2.71220297e-01 5.73747084e-02 3.69630344e-02 5.11811599e-02
      7.21414387e-02 1.42186061e-01 1.44034803e-01 2.31263682e-01
      1.65510803e-01 1.04236789e-01 2.62632638e-01 1.93444625e-01
      7.41364509e-02 6.94488510e-02 1.11200906e-01 1.38626561e-01
      2.71220297e-01 2.71220297e-01 2.71220297e-01 5.56197092e-02
      4.17756326e-02 4.57557924e-02 7.90937617e-02 1.33909315e-01
      1.25802785e-01 1.86597988e-01 1.20171383e-01 7.29068071e-02
      2.80942857e-01 2.06227019e-01 7.60904625e-02 7.06427842e-02
      1.18561566e-01 1.47447899e-01 2.89181322e-01 2.89181322e-01
      2.89181322e-01 5.69786653e-02 4.18004207e-02 4.59044948e-02
      8.06365013e-02 1.44459844e-01 1.35548040e-01 2.05014899e-01
      1.30057707e-01 7.57265911e-02 2.24437624e-01 1.48392096e-01
      8.30082968e-02 9.53800678e-02 1.19419597e-01 1.86241433e-01
      2.89181322e-01 2.89181322e-01 2.89181322e-01 5.30637540e-02
      3.73658612e-02 4.49626893e-02 8.39175880e-02 1.12614661e-01
      1.21575370e-01 1.51463181e-01 7.40215704e-02 5.75093031e-02
      2.52306581e-01 1.69207558e-01 9.54008251e-02 1.08245440e-01
      1.28943667e-01 1.92609638e-01 3.02337736e-01 3.02337736e-01
      3.02337736e-01 6.15792982e-02 4.41835448e-02 5.25915362e-02
      9.61368531e-02 1.22136518e-01 1.26402691e-01 1.65176108e-01
      8.53364170e-02 6.66591153e-02 2.19806284e-01 1.05837278e-01
      9.73009840e-02 1.31399855e-01 1.43216118e-01 1.99397504e-01
      3.02337736e-01 3.02337736e-01 3.02337736e-01 4.31077555e-02
      2.73610223e-02 4.78100441e-02 8.50437656e-02 9.71811712e-02
      1.03908509e-01 1.10741109e-01 3.26165669e-02 4.27466184e-02
      2.38139719e-01 1.15966663e-01 1.05364360e-01 1.36985257e-01
      1.56059727e-01 2.29075164e-01 3.03824753e-01 3.03824753e-01
      3.03824753e-01 4.80851829e-02 3.12552899e-02 5.21613993e-02
      9.12704840e-02 1.07069664e-01 1.20207489e-01 1.22078151e-01
      3.63169499e-02 4.78059016e-02 2.28321180e-01 1.01761118e-01
      1.04114711e-01 1.68199271e-01 2.04380825e-01 1.85398236e-01
      3.03824753e-01 3.03824753e-01 3.03824753e-01 3.48240510e-02
      2.57469900e-02 4.29330803e-02 7.22557306e-02 1.02157772e-01
      6.65980279e-02 6.91036880e-02 2.01305524e-02 2.71640122e-02
      2.43431509e-01 1.05630718e-01 1.05832674e-01 1.69394135e-01
      2.15832680e-01 2.05699936e-01 3.01713794e-01 3.01713794e-01
      3.01713794e-01 3.68413702e-02 2.68288460e-02 4.40280847e-02
      7.37050772e-02 1.09322987e-01 7.58813545e-02 7.59800822e-02
      2.22545806e-02 2.87242923e-02 2.02450275e-01 9.77308750e-02
      1.20588653e-01 1.69981301e-01 2.34405503e-01 2.41285026e-01
      3.01713794e-01 3.01713794e-01 2.88212031e-01 2.30779834e-02
      2.20584441e-02 4.08732072e-02 5.40811867e-02 8.99074748e-02
      5.20331673e-02 3.84610556e-02 8.82315356e-03 1.43019604e-02
      2.22886965e-01 1.08764559e-01 1.34940445e-01 1.92413449e-01
      2.51523405e-01 2.48351946e-01 2.86135972e-01 2.86135972e-01
      2.86135972e-01 2.58203428e-02 2.46876739e-02 4.53766547e-02
      6.13791570e-02 9.65474695e-02 5.36905676e-02 4.00240794e-02
      9.61671304e-03 1.58174187e-02 1.84198648e-01 1.11520797e-01
      1.70717612e-01 1.76202923e-01 2.74729401e-01 2.86135972e-01
      2.86135972e-01 2.86135972e-01 2.25663185e-01 1.21811135e-02
      1.59693994e-02 3.58383022e-02 3.44206057e-02 7.11066946e-02
      3.78760435e-02 2.29578409e-02 6.38532545e-03 8.62877537e-03</_>
    <_>
      2.97935337e-01 7.97897726e-02 3.87429148e-02 3.73740704e-03
      2.25918763e-03 1.83207984e-03 1.05709024e-02 4.09236774e-02
      2.97935337e-01 2.97935337e-01 2.90603004e-02 9.33707878e-03
      2.21471791e-03 3.11603001e-03 4.28852998e-03 4.50082794e-02
      8.41288045e-02 2.97935337e-01 2.97935337e-01 2.81361967e-01
      1.54935598e-01 5.23241349e-02 2.28275117e-02 1.50979878e-02
      4.22708914e-02 1.35644540e-01 2.97935337e-01 2.97935337e-01
      1.01736203e-01 3.24915051e-02 2.41267215e-02 3.33330780e-02
      3.92046273e-02 1.92121059e-01 2.97935337e-01 2.97935337e-01
      2.57822931e-01 2.57822931e-01 1.51491165e-01 4.84579019e-02
      2.16811690e-02 1.51950074e-02 4.24099788e-02 1.35293216e-01
      2.57822931e-01 2.57822931e-01 1.01851791e-01 3.26656364e-02
      2.38572434e-02 3.12558562e-02 3.65091302e-02 1.86793655e-01
      2.57822931e-01 2.57822931e-01 2.57822931e-01 2.57822931e-01
      1.73736706e-01 5.50112016e-02 3.12433839e-02 2.41287593e-02
      5.09642288e-02 1.81304350e-01 2.08246365e-01 2.19173282e-01
      1.55632168e-01 5.07718250e-02 3.74741144e-02 4.44799177e-02
      4.48874347e-02 2.08676398e-01 2.57822931e-01 2.57822931e-01
      2.45412633e-01 2.45412633e-01 1.73208997e-01 5.85227422e-02
      3.26824151e-02 2.37067845e-02 5.07615171e-02 1.78468257e-01
      2.10531235e-01 2.24099353e-01 1.52516976e-01 4.99721169e-02
      3.75849232e-02 4.69149239e-02 4.75643426e-02 2.08812848e-01
      2.45412633e-01 2.45412633e-01 2.45412633e-01 2.45412633e-01
      2.02403039e-01 5.21818884e-02 3.41466181e-02 3.79971378e-02
      3.92302386e-02 2.07863927e-01 2.27814555e-01 2.18259528e-01
      1.69054434e-01 6.42215386e-02 4.88129556e-02 5.41007146e-02
      5.31300344e-02 2.12235436e-01 2.45412633e-01 2.45412633e-01
      2.49154806e-01 2.49154806e-01 1.90132022e-01 4.82719429e-02
      3.17407101e-02 3.35221365e-02 3.64831164e-02 1.89737812e-01
      2.09364504e-01 2.01493800e-01 1.53742775e-01 5.71739636e-02
      4.36943620e-02 5.06521650e-02 4.91365418e-02 2.00056434e-01
      2.49154806e-01 2.49154806e-01 2.49154806e-01 2.49154806e-01
      2.00875506e-01 4.73498739e-02 3.32791284e-02 3.41851376e-02
      3.22615393e-02 2.30883911e-01 2.21715376e-01 2.00679854e-01
      1.76691189e-01 6.18155524e-02 4.18212600e-02 4.53057066e-02
      4.93243225e-02 1.86462805e-01 2.49154806e-01 2.49154806e-01
      2.36321628e-01 2.50862896e-01 1.80474684e-01 4.35602218e-02
      3.16108763e-02 3.32630053e-02 3.04412693e-02 2.17560664e-01
      2.11548328e-01 1.90407738e-01 1.66945383e-01 5.96286096e-02
      4.03888002e-02 4.23471145e-02 4.53718975e-02 1.67960495e-01
      2.50862896e-01 2.48907581e-01 2.50862896e-01 2.50862896e-01
      1.99324161e-01 5.73309772e-02 3.84617448e-02 3.88353355e-02
      5.36333025e-02 2.33091399e-01 2.23441556e-01 1.99940592e-01
      1.69890583e-01 6.73809797e-02 3.73959392e-02 4.90679219e-02
      5.74531667e-02 1.93676025e-01 2.50862896e-01 2.50862896e-01
      2.50099570e-01 2.52082169e-01 2.06964821e-01 5.83072975e-02
      3.87109108e-02 3.70286964e-02 5.02123721e-02 2.27501035e-01
      2.18653023e-01 1.94814742e-01 1.67235062e-01 6.69981167e-02
      3.71111482e-02 4.90502752e-02 5.54073080e-02 1.96838617e-01
      2.52082169e-01 2.52082169e-01 1.97106451e-01 1.82872459e-01
      1.34850115e-01 5.35781160e-02 3.22185531e-02 4.94916216e-02
      1.21169589e-01 2.52082169e-01 2.29759797e-01 1.77593783e-01
      1.04935192e-01 6.93878382e-02 3.96678224e-02 6.34237304e-02
      7.51339719e-02 2.52082169e-01 2.52082169e-01 2.52082169e-01
      2.63629258e-01 2.44708538e-01 1.86028674e-01 7.13575855e-02
      4.23784479e-02 6.18551522e-02 1.52011767e-01 2.68722177e-01
      2.68722177e-01 2.38683730e-01 1.39879331e-01 9.22103897e-02
      5.12823574e-02 7.96509758e-02 9.38428417e-02 2.68722177e-01
      2.68722177e-01 2.68722177e-01 1.06438518e-01 4.31251377e-02
      4.87265736e-02 2.40586381e-02 1.70779545e-02 3.15125696e-02
      1.02783278e-01 2.28945345e-01 1.85053185e-01 1.55996829e-01
      5.45760579e-02 6.49766773e-02 4.39898670e-02 6.57113642e-02
      6.45489767e-02 2.08606943e-01 2.68722177e-01 2.51576513e-01
      2.74978906e-01 1.05825655e-01 1.14438139e-01 5.58135919e-02
      3.97391208e-02 7.53044263e-02 2.52760679e-01 3.35340083e-01
      3.35340083e-01 3.35340083e-01 1.34867996e-01 1.57611117e-01
      1.09687589e-01 1.65581673e-01 1.61365196e-01 3.35340083e-01
      3.35340083e-01 3.35340083e-01 2.88572367e-02 2.66988738e-03
      2.58600456e-03 4.51794085e-06 8.79148394e-03 8.57733015e-04
      1.52615840e-02 4.27648947e-02 4.74573150e-02 8.74100700e-02
      2.07661837e-02 2.80130971e-02 1.11133298e-02 2.24031508e-02
      7.40087766e-04 3.55681963e-02 9.63935181e-02 1.18212290e-01
      2.70426095e-01 2.20381748e-02 1.89272966e-02 1.07150358e-04
      6.61860853e-02 6.37845229e-03 1.49051115e-01 3.53954494e-01
      3.53954494e-01 3.53954494e-01 1.63707480e-01 2.17758551e-01
      1.11982271e-01 2.31813446e-01 1.26395095e-02 3.04617852e-01
      3.53954494e-01 3.53954494e-01 1.74797680e-02 1.02402596e-02
      3.06427069e-02 0. 3.50620486e-02 0. 2.84681153e-02 9.51356255e-03
      1.74797680e-02 6.32671565e-02 2.37383880e-02 6.77077472e-02
      5.79185598e-03 6.80234730e-02 8.35680217e-03 1.02858841e-01
      4.48841192e-02 7.56563619e-02</_>
    <_>
      9.79737788e-02 2.32748076e-01 2.65885741e-01 7.41255432e-02
      6.22644685e-02 6.44802377e-02 1.26043081e-01 1.87782347e-01
      1.47522673e-01 1.50358260e-01 2.02269346e-01 1.23514317e-01
      3.31121236e-02 3.94848697e-02 6.42804578e-02 2.33334988e-01
      2.65885741e-01 2.65885741e-01 7.74240792e-02 1.71132505e-01
      2.65885741e-01 1.09710827e-01 7.89658055e-02 8.47476870e-02
      1.51989952e-01 1.92460448e-01 1.18333139e-01 1.52200088e-01
      1.72394633e-01 1.71274990e-01 4.99611273e-02 3.82554717e-02
      6.96233213e-02 2.38839492e-01 2.65885741e-01 2.65885741e-01
      7.33369365e-02 1.62679166e-01 2.67369390e-01 1.09201208e-01
      7.66423568e-02 8.00972357e-02 1.43921256e-01 1.82846770e-01
      1.13118283e-01 1.43381462e-01 1.65196106e-01 1.63403869e-01
      4.80677076e-02 3.69748063e-02 6.80700466e-02 2.30351135e-01
      2.67369390e-01 2.67369390e-01 1.24571271e-01 1.63248524e-01
      2.67369390e-01 1.25451848e-01 8.73058736e-02 9.46533605e-02
      1.64038479e-01 1.62298083e-01 1.08013652e-01 2.35665053e-01
      1.88712493e-01 1.26249149e-01 6.00202344e-02 4.11640517e-02
      7.22932965e-02 2.29068369e-01 2.67369390e-01 2.67369390e-01
      1.13495938e-01 1.47135228e-01 2.60357469e-01 1.18409514e-01
      8.04934055e-02 8.34193006e-02 1.44979641e-01 1.50066301e-01
      1.01218544e-01 2.13160440e-01 1.70645416e-01 1.17810249e-01
      5.52150197e-02 3.75820845e-02 6.55808523e-02 2.13140443e-01
      2.60357469e-01 2.60357469e-01 1.54601455e-01 2.50084192e-01
      2.42338896e-01 8.78093541e-02 7.35101104e-02 8.77204761e-02
      1.51265562e-01 1.25499576e-01 1.08250581e-01 2.60357469e-01
      2.52834380e-01 1.04405455e-01 4.24224995e-02 2.89650410e-02
      7.19518811e-02 1.82509691e-01 2.60357469e-01 2.60357469e-01
      1.52506739e-01 2.36161828e-01 2.24085629e-01 8.25078934e-02
      7.04499111e-02 8.74776021e-02 1.49892330e-01 1.20131433e-01
      1.04376450e-01 2.61717975e-01 2.42641106e-01 9.63393301e-02
      3.94921526e-02 2.75708344e-02 6.94476441e-02 1.72939673e-01
      2.61717975e-01 2.61717975e-01 6.49889633e-02 1.71176940e-01
      2.61717975e-01 9.35534686e-02 7.34798759e-02 1.03618816e-01
      2.03783453e-01 1.68889076e-01 7.02544674e-02 1.62882775e-01
      2.07602754e-01 1.70998707e-01 5.41851819e-02 2.99583469e-02
      8.70318785e-02 2.02631012e-01 2.61717975e-01 2.61717975e-01
      6.68661743e-02 1.72607824e-01 2.70609021e-01 9.13110748e-02
      7.26103485e-02 1.02602735e-01 1.98320359e-01 1.59710541e-01
      6.82473183e-02 1.64065108e-01 2.06221536e-01 1.69996008e-01
      5.20732254e-02 2.92289499e-02 8.66769925e-02 2.00734228e-01
      2.70609021e-01 2.70609021e-01 4.28827032e-02 1.17342994e-01
      2.70609021e-01 1.23242930e-01 9.78895202e-02 1.13466978e-01
      1.81822971e-01 1.76477551e-01 6.03571646e-02 1.52952269e-01
      1.80459797e-01 2.20165148e-01 6.98392317e-02 3.99846733e-02
      8.27942118e-02 2.03569919e-01 2.70609021e-01 2.70609021e-01
      4.09423113e-02 1.13412879e-01 2.72180527e-01 1.13284297e-01
      8.89163911e-02 1.06155239e-01 1.76573887e-01 1.76482946e-01
      5.79045378e-02 1.46255285e-01 1.74794689e-01 2.10393086e-01
      6.59261197e-02 3.72886322e-02 7.76563063e-02 1.94141611e-01
      2.72180527e-01 2.72180527e-01 4.54114862e-02 1.05758190e-01
      2.72180527e-01 1.32975280e-01 1.00963674e-01 1.35717943e-01
      1.68752521e-01 1.61315948e-01 7.19662905e-02 1.75208509e-01
      1.68577328e-01 2.32621804e-01 9.11799669e-02 4.38480116e-02
      8.09452012e-02 2.13670462e-01 2.72180527e-01 2.72180527e-01
      4.30388898e-02 9.97647867e-02 2.63920188e-01 1.26505911e-01
      9.97008681e-02 1.28443465e-01 1.59707770e-01 1.54829755e-01
      6.69807792e-02 1.65814608e-01 1.58776626e-01 2.14212403e-01
      8.47436339e-02 4.22451161e-02 7.74267316e-02 2.01580554e-01
      2.63920188e-01 2.63920188e-01 3.90578732e-02 1.23438209e-01
      2.63920188e-01 1.05508946e-01 9.19297114e-02 1.74432471e-01
      1.76672816e-01 1.26340836e-01 7.41208941e-02 1.75190538e-01
      2.08390161e-01 2.50751972e-01 8.08036327e-02 3.98330353e-02
      9.06214043e-02 2.10417002e-01 2.63920188e-01 2.63920188e-01
      3.74322794e-02 1.16079420e-01 2.58834153e-01 1.02194637e-01
      8.85512382e-02 1.61648467e-01 1.60299078e-01 1.18491337e-01
      7.08015487e-02 1.62644535e-01 1.91987023e-01 2.40881473e-01
      7.82796666e-02 3.77716459e-02 8.48876312e-02 1.99563488e-01
      2.58834153e-01 2.58834153e-01 3.62273939e-02 1.36089325e-01
      2.58834153e-01 1.07966155e-01 1.19062677e-01 1.39004603e-01
      1.53440759e-01 1.18507594e-01 7.46883452e-02 1.82753012e-01
      2.50768721e-01 2.58834153e-01 7.05153421e-02 5.47303818e-02
      7.21635520e-02 1.75705850e-01 2.58834153e-01 2.58834153e-01
      3.53818759e-02 1.29284099e-01 2.53446966e-01 9.96602550e-02
      1.12793721e-01 1.35282189e-01 1.53486967e-01 1.14586763e-01
      7.22320527e-02 1.78599134e-01 2.42262289e-01 2.52088189e-01
      6.61298707e-02 5.12965247e-02 6.87609613e-02 1.68612733e-01
      2.53446966e-01 2.53446966e-01 3.21479924e-02 1.15293741e-01
      2.36392036e-01 1.12085111e-01 1.53116673e-01 1.37219638e-01
      1.29346177e-01 1.24359258e-01 5.75025566e-02 2.20188320e-01
      2.53446966e-01 2.53446966e-01 7.18305856e-02 7.75164291e-02
      8.05540681e-02 1.61260009e-01 2.53446966e-01 2.53446966e-01</_>
    <_>
      2.34967694e-01 1.31648481e-01 1.70989051e-01 7.61529207e-02
      1.14512525e-01 1.23451166e-01 7.12749735e-02 6.70424923e-02
      2.07551017e-01 2.34967694e-01 2.34967694e-01 2.02821806e-01
      6.79044127e-02 4.18004729e-02 5.52413948e-02 1.02418050e-01
      2.34967694e-01 2.34967694e-01 1.41389579e-01 2.02717930e-01
      2.34967694e-01 1.13852873e-01 1.93095267e-01 1.79699838e-01
      1.07264362e-01 7.70177320e-02 1.18813127e-01 2.34967694e-01
      2.34967694e-01 2.34967694e-01 5.97441420e-02 6.23493828e-02
      7.11525232e-02 9.07480270e-02 2.34967694e-01 2.34967694e-01
      1.30372316e-01 1.77873954e-01 2.10084498e-01 9.50014591e-02
      1.63016826e-01 1.55890375e-01 9.56059322e-02 7.14635551e-02
      1.09540187e-01 2.19222292e-01 2.32515559e-01 2.24535242e-01
      5.13352007e-02 5.40187024e-02 6.35077804e-02 8.07765201e-02
      2.32515559e-01 2.32515559e-01 1.41713172e-01 2.32515559e-01
      2.32515559e-01 1.37856364e-01 1.79177225e-01 1.86852694e-01
      1.12432852e-01 6.84468746e-02 9.60976779e-02 2.32515559e-01
      2.32515559e-01 2.32515559e-01 8.05679560e-02 8.41327980e-02
      8.53090808e-02 1.00111388e-01 2.32515559e-01 2.32515559e-01
      1.23284072e-01 2.11979166e-01 2.33352855e-01 1.15058586e-01
      1.51182249e-01 1.54996455e-01 9.46855843e-02 5.85755520e-02
      8.39983970e-02 2.33352855e-01 2.33352855e-01 2.33352855e-01
      7.00665563e-02 7.15931505e-02 7.08184540e-02 8.27815458e-02
      2.16477424e-01 2.30137825e-01 1.63876221e-01 2.33352855e-01
      2.33352855e-01 1.32095695e-01 1.38796195e-01 1.48290649e-01
      1.02509379e-01 6.22002967e-02 6.79709390e-02 2.33352855e-01
      2.33352855e-01 2.33352855e-01 9.17315185e-02 9.85209867e-02
      9.28413197e-02 1.01348512e-01 2.23897785e-01 2.33352855e-01
      1.45795673e-01 2.42049813e-01 2.42049813e-01 1.25376642e-01
      1.28771633e-01 1.34882942e-01 9.02576670e-02 5.42323664e-02
      5.98288141e-02 2.42049813e-01 2.42049813e-01 2.42049813e-01
      8.52706507e-02 8.87273178e-02 8.20142031e-02 9.02490094e-02
      2.02395469e-01 2.24031329e-01 1.82647198e-01 2.42049813e-01
      2.42049813e-01 1.16080567e-01 1.29296243e-01 1.18222982e-01
      6.31305203e-02 4.92942929e-02 6.74965456e-02 2.42049813e-01
      2.42049813e-01 2.42049813e-01 8.67449567e-02 1.19679123e-01
      1.07850701e-01 6.67534471e-02 1.84798762e-01 2.08629712e-01
      1.70523748e-01 2.45009810e-01 2.45009810e-01 1.14224374e-01
      1.24291494e-01 1.16057836e-01 6.01256043e-02 4.58685085e-02
      6.22210652e-02 2.45009810e-01 2.45009810e-01 2.45009810e-01
      8.28143954e-02 1.14391863e-01 1.07260801e-01 6.36406466e-02
      1.76841259e-01 1.99031159e-01 1.82392970e-01 2.45009810e-01
      2.45009810e-01 8.81914496e-02 1.02246709e-01 9.62269083e-02
      5.76679818e-02 5.19322678e-02 9.56717879e-02 2.45009810e-01
      2.45009810e-01 2.13405028e-01 5.35825714e-02 1.16505831e-01
      1.66799322e-01 9.10452530e-02 1.90268710e-01 2.45009810e-01
      1.76074848e-01 2.42696553e-01 2.42696553e-01 8.43987763e-02
      9.71497074e-02 9.10393000e-02 5.27388863e-02 4.83170301e-02
      9.08765718e-02 2.42696553e-01 2.42696553e-01 2.04857826e-01
      5.16950190e-02 1.13948204e-01 1.59359485e-01 8.17013532e-02
      1.81004107e-01 2.41273269e-01 1.57620713e-01 2.42696553e-01
      2.42696553e-01 4.63551916e-02 8.11666995e-02 7.52131566e-02
      6.95447922e-02 8.49067122e-02 1.02452949e-01 2.42696553e-01
      2.42696553e-01 1.98653266e-01 1.89246573e-02 5.60856983e-02
      1.44686446e-01 1.81608707e-01 2.42696553e-01 2.42696553e-01
      1.53002635e-01 2.45246559e-01 2.45246559e-01 4.25448939e-02
      7.72065818e-02 7.38214627e-02 6.85345680e-02 8.04226547e-02
      9.76230130e-02 2.45246559e-01 2.45246559e-01 1.83807001e-01
      1.82510093e-02 5.45320883e-02 1.39588282e-01 1.67613551e-01
      2.45246559e-01 2.45246559e-01 1.18884295e-01 2.45246559e-01
      2.45246559e-01 3.92369479e-02 7.28929266e-02 5.63103035e-02
      6.83605149e-02 9.70740914e-02 9.93243083e-02 2.17266366e-01
      2.45246559e-01 1.87507778e-01 1.41989999e-02 1.92069318e-02
      6.46626800e-02 2.42308319e-01 2.45246559e-01 2.45246559e-01
      1.15979746e-01 2.49752313e-01 2.49752313e-01 4.01768796e-02
      7.40315691e-02 5.71786501e-02 6.73043877e-02 9.39927697e-02
      9.54253450e-02 2.10227191e-01 2.49752313e-01 1.79203093e-01
      1.43911829e-02 2.01159287e-02 6.55309930e-02 2.31609687e-01
      2.49752313e-01 2.49752313e-01 1.42640591e-01 2.49752313e-01
      2.34305888e-01 6.90709502e-02 8.41604918e-02 4.81159948e-02
      6.02259487e-02 7.65171126e-02 9.81649086e-02 2.49752313e-01
      2.49752313e-01 1.91601321e-01 2.99775302e-02 2.37547215e-02
      5.14676571e-02 2.07946062e-01 2.49752313e-01 2.49752313e-01
      1.42819569e-01 2.54489511e-01 2.54489511e-01 7.46362358e-02
      8.87060985e-02 4.99055274e-02 6.12762235e-02 7.93601424e-02
      9.71963927e-02 2.54489511e-01 2.54489511e-01 2.10871980e-01
      3.19854580e-02 2.46426016e-02 5.33133410e-02 2.23441824e-01
      2.54489511e-01 2.54489511e-01 1.85115948e-01 1.82754844e-01
      1.89961493e-01 4.97275107e-02 7.48648643e-02 3.54709886e-02
      5.14352731e-02 5.94102629e-02 1.52116239e-01 2.54489511e-01
      2.54176885e-01 1.72867998e-01 2.42261793e-02 3.28657292e-02
      5.55199683e-02 1.35047033e-01 2.54489511e-01 2.54489511e-01</_>
    <_>
      1.62273183e-01 2.49219730e-01 2.49219730e-01 5.04187047e-02
      5.74804768e-02 4.62536961e-02 1.66807041e-01 2.49219730e-01
      1.64764002e-01 1.04408987e-01 1.36407033e-01 8.83604810e-02
      7.50600398e-02 1.03254907e-01 9.38587189e-02 2.49219730e-01
      2.49219730e-01 1.40447393e-01 1.88610420e-01 2.49219730e-01
      2.49219730e-01 5.51325716e-02 6.54811114e-02 5.75577356e-02
      1.98532641e-01 2.49219730e-01 1.77444726e-01 1.01207919e-01
      1.14675634e-01 9.55835357e-02 8.83391351e-02 1.08786635e-01
      1.23805106e-01 2.49219730e-01 2.49219730e-01 1.42677128e-01
      1.76417574e-01 2.42034078e-01 2.42034078e-01 5.15639447e-02
      6.38951138e-02 5.52631877e-02 1.82866007e-01 2.42034078e-01
      1.65321842e-01 9.54559520e-02 1.08961254e-01 8.97971839e-02
      8.55660066e-02 1.05665371e-01 1.16304412e-01 2.42034078e-01
      2.42034078e-01 1.32871345e-01 2.23867476e-01 2.42034078e-01
      2.33502582e-01 5.08882888e-02 8.05064142e-02 6.40857965e-02
      1.85264513e-01 2.42034078e-01 1.91989422e-01 1.10369533e-01
      1.06336728e-01 7.05822706e-02 7.33221471e-02 1.47909388e-01
      1.45632014e-01 2.42034078e-01 2.42034078e-01 1.54973969e-01
      2.03206629e-01 2.40800932e-01 2.25358695e-01 4.74047363e-02
      7.52519071e-02 5.94860576e-02 1.75759196e-01 2.40800932e-01
      1.73263565e-01 1.00243427e-01 9.79776680e-02 6.47895411e-02
      6.89487308e-02 1.36731729e-01 1.34925514e-01 2.40800932e-01
      2.40800932e-01 1.39490962e-01 2.12911412e-01 2.40800932e-01
      2.27150321e-01 5.44197522e-02 7.28992522e-02 7.47944936e-02
      1.74783438e-01 2.40800932e-01 2.00336739e-01 1.12654015e-01
      9.29699838e-02 5.55540025e-02 6.64764494e-02 1.57577470e-01
      1.65246204e-01 2.40800932e-01 2.40800932e-01 1.47836685e-01
      2.02414766e-01 2.44506523e-01 2.12804675e-01 4.94021103e-02
      6.55641705e-02 6.84668422e-02 1.62618116e-01 2.44506523e-01
      1.91833124e-01 1.08416267e-01 8.92872736e-02 5.41194230e-02
      6.36558533e-02 1.43196404e-01 1.47293121e-01 2.44506523e-01
      2.44506523e-01 1.42618537e-01 1.76900133e-01 2.44506523e-01
      2.44506523e-01 5.52264452e-02 6.08513430e-02 7.16247261e-02
      2.18343347e-01 2.44506523e-01 1.84130087e-01 1.09964520e-01
      8.29677954e-02 5.36776893e-02 6.63677529e-02 1.59368604e-01
      1.36781588e-01 2.44506523e-01 2.44506523e-01 1.19184040e-01
      1.68577477e-01 2.47596979e-01 2.22001970e-01 5.33412732e-02
      6.00613132e-02 6.91734627e-02 1.98139742e-01 2.47596979e-01
      1.76700622e-01 1.04602858e-01 7.77347982e-02 4.83585224e-02
      6.11516126e-02 1.54729143e-01 1.34697631e-01 2.47596979e-01
      2.47596979e-01 1.14136159e-01 1.87165543e-01 2.47596979e-01
      2.42760852e-01 6.35119975e-02 5.47021665e-02 5.51109761e-02
      2.06339344e-01 2.47596979e-01 2.01769203e-01 9.00774673e-02
      8.74077752e-02 7.60032758e-02 6.87710345e-02 1.51422396e-01
      1.03422754e-01 2.47596979e-01 2.47596979e-01 1.49315581e-01
      1.69492811e-01 2.48186350e-01 2.20064953e-01 5.83668016e-02
      5.09857163e-02 5.01286760e-02 1.92194566e-01 2.48186350e-01
      1.83420077e-01 8.13357830e-02 7.72364512e-02 6.47303089e-02
      6.01554811e-02 1.39147848e-01 9.62379649e-02 2.48186350e-01
      2.48186350e-01 1.34365663e-01 1.82735205e-01 2.48186350e-01
      2.48186350e-01 7.35975280e-02 7.08218291e-02 5.87542094e-02
      1.28675833e-01 2.48186350e-01 2.48186350e-01 9.08871070e-02
      1.05253674e-01 8.40144977e-02 5.62707856e-02 1.21965446e-01
      1.12143226e-01 2.42260575e-01 2.48186350e-01 2.00716585e-01
      1.68184787e-01 2.44702056e-01 2.44702056e-01 6.68069273e-02
      6.49293140e-02 5.32233156e-02 1.18899599e-01 2.44702056e-01
      2.29881093e-01 8.25182423e-02 9.63991210e-02 7.73979872e-02
      5.17648607e-02 1.12165518e-01 1.01035446e-01 2.16633826e-01
      2.44702056e-01 1.82870880e-01 1.88146368e-01 2.44702056e-01
      2.44702056e-01 6.49498403e-02 9.10601318e-02 7.38985613e-02
      1.33185342e-01 2.32048944e-01 1.64397418e-01 1.42473787e-01
      1.80397615e-01 7.38256201e-02 6.58096373e-02 1.30130321e-01
      1.29620716e-01 2.44702056e-01 2.44702056e-01 1.88328013e-01
      1.71596587e-01 2.47465000e-01 2.42254481e-01 6.18184768e-02
      8.27980042e-02 6.76676333e-02 1.23342343e-01 2.17816740e-01
      1.51061162e-01 1.28874853e-01 1.68063119e-01 6.97581694e-02
      5.96312322e-02 1.21576108e-01 1.22216783e-01 2.47465000e-01
      2.47465000e-01 1.71369076e-01 1.89768240e-01 2.47465000e-01
      2.19123647e-01 5.77287637e-02 1.12893626e-01 7.71687627e-02
      1.19452149e-01 2.14921311e-01 1.37789994e-01 1.55271530e-01
      1.97945267e-01 8.13348815e-02 6.61922917e-02 1.02902442e-01
      1.50859728e-01 2.47465000e-01 2.47465000e-01 1.89010739e-01
      1.80828273e-01 2.48962551e-01 2.05705732e-01 5.28844893e-02
      9.94252861e-02 7.07114562e-02 1.11423433e-01 2.02655673e-01
      1.32558286e-01 1.48598343e-01 1.85836628e-01 7.68678337e-02
      6.19364083e-02 9.17664990e-02 1.36741176e-01 2.48962551e-01
      2.48962551e-01 1.81427747e-01 1.73005700e-01 2.48962551e-01
      2.48962551e-01 5.88809811e-02 1.17857456e-01 7.78546333e-02
      1.17107116e-01 2.40211070e-01 1.52825132e-01 1.39661685e-01
      1.80528358e-01 8.46763849e-02 5.88808805e-02 1.00702703e-01
      1.31276503e-01 2.48962551e-01 2.48962551e-01 1.87772200e-01</_>
    <_>
      2.46787697e-01 2.46787697e-01 9.12633538e-02 3.62120196e-02
      3.52208912e-02 5.01638390e-02 2.07119718e-01 2.46787697e-01
      2.46787697e-01 9.43132341e-02 5.61961271e-02 4.85199615e-02
      6.48554787e-02 1.11048914e-01 1.27784088e-01 2.46787697e-01
      2.46787697e-01 1.55443728e-01 2.46787697e-01 2.46787697e-01
      6.82799891e-02 3.41083221e-02 3.83464508e-02 5.76743707e-02
      2.46787697e-01 2.46787697e-01 2.46787697e-01 7.41311908e-02
      5.89894950e-02 4.00155112e-02 6.29185960e-02 1.17759429e-01
      1.27986252e-01 2.46787697e-01 2.46787697e-01 1.50471002e-01
      2.46815845e-01 2.46815845e-01 6.54122755e-02 3.29125039e-02
      3.81954499e-02 5.63249700e-02 2.39339903e-01 2.46815845e-01
      2.46815845e-01 7.14502633e-02 5.66741638e-02 3.83484364e-02
      6.22603409e-02 1.19283319e-01 1.24574549e-01 2.46815845e-01
      2.46815845e-01 1.45530641e-01 2.46815845e-01 2.46815845e-01
      7.91768208e-02 3.47722061e-02 4.56752852e-02 6.12551160e-02
      2.46815845e-01 2.46815845e-01 2.46815845e-01 6.97527230e-02
      5.25632426e-02 4.47240956e-02 7.26320297e-02 1.17656320e-01
      1.22574113e-01 2.46815845e-01 2.45893374e-01 1.30757302e-01
      2.50821918e-01 2.50821918e-01 7.97379538e-02 3.47681344e-02
      4.59357277e-02 5.94384708e-02 2.50821918e-01 2.50821918e-01
      2.50821918e-01 6.61658272e-02 5.02852462e-02 4.29160967e-02
      7.16483966e-02 1.19001918e-01 1.20421238e-01 2.50821918e-01
      2.47392863e-01 1.26275957e-01 2.50821918e-01 2.50821918e-01
      8.43279660e-02 4.40840125e-02 5.16264029e-02 8.65105391e-02
      2.50821918e-01 2.50821918e-01 2.50821918e-01 6.59296364e-02
      3.98731306e-02 4.76539694e-02 8.15829411e-02 1.11682765e-01
      1.29072145e-01 2.34328270e-01 2.08867848e-01 1.04050741e-01
      2.60573834e-01 2.60573834e-01 8.93002003e-02 4.54724543e-02
      5.08634672e-02 8.44534561e-02 2.60573834e-01 2.60573834e-01
      2.60573834e-01 7.21715093e-02 4.35888022e-02 5.06436713e-02
      8.41198042e-02 1.10459127e-01 1.26457304e-01 2.44048566e-01
      2.18791574e-01 1.11349411e-01 2.60573834e-01 2.30080515e-01
      7.31420219e-02 5.64518161e-02 6.29225224e-02 8.72694403e-02
      2.60573834e-01 2.60573834e-01 2.60573834e-01 6.90177679e-02
      2.73407418e-02 5.37499636e-02 8.70954618e-02 1.13619074e-01
      1.15623727e-01 2.13852972e-01 1.83607146e-01 8.37735981e-02
      2.72017956e-01 2.34543011e-01 7.43719637e-02 5.82524128e-02
      6.83760270e-02 9.47025716e-02 2.72017956e-01 2.72017956e-01
      2.72017956e-01 7.20368400e-02 2.71601975e-02 5.42638339e-02
      9.10223648e-02 1.23318285e-01 1.26260474e-01 2.17643887e-01
      1.87517181e-01 8.87496844e-02 2.69006729e-01 2.39189938e-01
      6.43366650e-02 7.61692896e-02 8.38297680e-02 8.45764056e-02
      2.72017956e-01 2.72017956e-01 2.72017956e-01 6.65991828e-02
      4.31271754e-02 5.51495962e-02 9.14487168e-02 1.17490806e-01
      9.64108929e-02 1.95176512e-01 1.60045758e-01 6.94781989e-02
      2.73571670e-01 2.44224757e-01 6.41656741e-02 7.59080872e-02
      8.69411901e-02 8.63973275e-02 2.85069346e-01 2.85069346e-01
      2.85069346e-01 6.49584606e-02 4.13325764e-02 5.34713306e-02
      9.14165676e-02 1.22900270e-01 9.95758995e-02 2.04996169e-01
      1.67517737e-01 6.89502209e-02 2.52920121e-01 2.01853454e-01
      6.19675517e-02 7.67110959e-02 1.05997130e-01 1.28815264e-01
      2.85069346e-01 2.85069346e-01 2.85069346e-01 5.78338131e-02
      4.85378429e-02 6.03567921e-02 8.02253783e-02 1.23504303e-01
      1.11152008e-01 1.70837894e-01 1.23161770e-01 5.62297851e-02
      2.64293551e-01 2.12458059e-01 6.64365813e-02 8.01416487e-02
      1.06299944e-01 1.23660728e-01 2.98282713e-01 2.98282713e-01
      2.98282713e-01 6.27388358e-02 5.20017892e-02 6.42592683e-02
      8.37612078e-02 1.24374501e-01 1.07247598e-01 1.72754183e-01
      1.28897041e-01 6.08816557e-02 2.41532624e-01 1.69967175e-01
      7.77318627e-02 8.28647316e-02 1.28128588e-01 1.57908410e-01
      2.98282713e-01 2.98282713e-01 2.98282713e-01 4.98431027e-02
      5.16877882e-02 6.68140948e-02 6.94706216e-02 1.29461810e-01
      1.14183664e-01 1.36290714e-01 9.53207314e-02 4.95088622e-02
      2.43118852e-01 1.69939503e-01 7.76263177e-02 8.10475051e-02
      1.29606307e-01 1.67726189e-01 3.04583490e-01 3.04583490e-01
      3.04583490e-01 5.10380343e-02 5.23401834e-02 6.74558654e-02
      6.91290349e-02 1.31936431e-01 1.22029267e-01 1.39649048e-01
      9.54126641e-02 5.07607497e-02 2.23266765e-01 1.36547402e-01
      9.28566009e-02 1.03756621e-01 1.49613515e-01 2.09197253e-01
      3.04583490e-01 3.04583490e-01 3.04583490e-01 4.86124046e-02
      4.07705754e-02 5.86231053e-02 7.11319074e-02 1.22280709e-01
      1.24101564e-01 1.13282420e-01 6.80529773e-02 4.79268990e-02
      2.15999991e-01 1.31061018e-01 8.61068219e-02 9.42784622e-02
      1.41616702e-01 2.04947338e-01 2.96159834e-01 2.96159834e-01
      2.96159834e-01 4.60971855e-02 3.91663276e-02 5.51665165e-02
      6.51983097e-02 1.17181696e-01 1.22772835e-01 1.11550219e-01
      6.71130419e-02 4.53848764e-02 2.81164587e-01 1.57796428e-01
      9.51257572e-02 9.98357981e-02 1.47178248e-01 1.69591978e-01
      2.96159834e-01 2.96159834e-01 2.96159834e-01 1.30348980e-01
      1.42571792e-01 6.10184781e-02 5.69679104e-02 1.23222187e-01
      8.56686831e-02 1.00240350e-01 7.81901479e-02 1.15990929e-01</_>
    <_>
      3.17250013e-01 8.97197425e-03 7.86772463e-03 3.41184740e-03
      1.48217650e-02 7.84838572e-03 1.17566716e-02 1.69999730e-02
      3.17250013e-01 3.17250013e-01 1.31111657e-02 7.96444155e-03
      3.86813469e-03 1.57353729e-02 4.52092849e-03 8.13938770e-03
      8.72248039e-03 3.17250013e-01 3.17250013e-01 1.01030543e-01
      7.07677677e-02 1.10298827e-01 1.80217877e-01 1.13465719e-01
      7.01253861e-02 1.07331865e-01 3.17250013e-01 3.17250013e-01
      1.40732989e-01 8.44161659e-02 6.56203777e-02 1.38329864e-01
      9.74960253e-02 1.14679478e-01 1.67106405e-01 3.17250013e-01
      2.54600108e-01 6.97212070e-02 4.77738641e-02 7.22931325e-02
      1.24372154e-01 7.95807615e-02 4.82587740e-02 7.20668808e-02
      2.54600108e-01 2.54600108e-01 9.62663889e-02 5.75404167e-02
      4.45443764e-02 9.49761197e-02 6.60343915e-02 7.94121400e-02
      1.12266079e-01 2.54600108e-01 1.80709377e-01 2.54600108e-01
      2.25638479e-01 1.07259311e-01 1.94543615e-01 1.47847161e-01
      1.03543699e-01 1.39144644e-01 1.95549846e-01 2.35169262e-01
      2.54600108e-01 1.83172405e-01 7.09589496e-02 1.32582992e-01
      1.03725761e-01 2.37140045e-01 2.54600108e-01 2.31504038e-01
      1.44372061e-01 2.37419844e-01 1.80209026e-01 9.00558233e-02
      1.60708755e-01 1.19673058e-01 8.19812641e-02 1.08811885e-01
      1.55122519e-01 1.87066257e-01 2.42031723e-01 1.44375414e-01
      5.78296594e-02 1.09355040e-01 8.67637172e-02 1.90177113e-01
      2.42031723e-01 1.82585478e-01 1.18987337e-01 2.42031723e-01
      2.42031723e-01 1.20736666e-01 1.29778653e-01 9.09875780e-02
      8.71516541e-02 1.10834062e-01 1.15616657e-01 1.88247293e-01
      2.42031723e-01 2.02627778e-01 5.50050735e-02 8.17579180e-02
      8.30346420e-02 2.42031723e-01 2.42031723e-01 2.42031723e-01
      1.07518859e-01 2.43988350e-01 2.43988350e-01 1.07384793e-01
      1.14389688e-01 7.79151395e-02 7.67153651e-02 1.00463070e-01
      1.04705259e-01 1.70745239e-01 2.43988350e-01 1.79893091e-01
      4.78531383e-02 7.18251392e-02 7.44496882e-02 2.15296343e-01
      2.43988350e-01 2.26944312e-01 1.24690793e-01 2.43988350e-01
      2.43988350e-01 1.35228440e-01 1.02309763e-01 7.99655989e-02
      7.87189230e-02 1.06074937e-01 1.18895262e-01 1.94279388e-01
      2.43988350e-01 1.69509038e-01 5.06865792e-02 6.62746578e-02
      7.06134290e-02 2.43988350e-01 2.43988350e-01 2.43988350e-01
      1.15496136e-01 2.42460653e-01 2.42460653e-01 1.23226158e-01
      9.85965282e-02 7.85271972e-02 7.60960430e-02 9.94215459e-02
      1.09780900e-01 1.82088748e-01 2.42460653e-01 1.59782097e-01
      4.87710647e-02 6.34110942e-02 6.46299943e-02 2.39661291e-01
      2.42460653e-01 2.37002715e-01 1.56222090e-01 2.42460653e-01
      2.40751594e-01 1.31948590e-01 8.56819525e-02 7.97322094e-02
      5.97629100e-02 1.16599172e-01 1.38954908e-01 2.10572585e-01
      2.42460653e-01 1.26186013e-01 4.27941419e-02 6.06222451e-02
      6.73399344e-02 2.28064999e-01 2.42460653e-01 2.42460653e-01
      1.41890228e-01 2.47438341e-01 2.36416489e-01 1.29152358e-01
      7.85238147e-02 7.55820051e-02 5.73074259e-02 1.06787086e-01
      1.25984013e-01 1.91993162e-01 2.47438341e-01 1.22379750e-01
      4.18343917e-02 5.63633107e-02 6.43676445e-02 2.23323748e-01
      2.47438341e-01 2.47438341e-01 1.54482543e-01 2.47438341e-01
      2.29277402e-01 9.74945128e-02 1.21926449e-01 9.34707671e-02
      6.38663024e-02 1.12406693e-01 1.40307158e-01 2.18328848e-01
      2.47438341e-01 1.18616335e-01 4.34681810e-02 6.47561327e-02
      8.71786699e-02 2.01081723e-01 2.47438341e-01 2.47438341e-01
      1.46386594e-01 2.50304937e-01 2.14514986e-01 9.23014134e-02
      1.07774809e-01 8.45271647e-02 6.00483343e-02 1.06780015e-01
      1.34802371e-01 2.06150308e-01 2.50304937e-01 1.10971548e-01
      4.00635526e-02 5.73653318e-02 8.01898018e-02 1.90185994e-01
      2.50304937e-01 2.50304937e-01 1.46371692e-01 2.50304937e-01
      2.50304937e-01 7.95759782e-02 1.13618605e-01 9.83024091e-02
      7.77147636e-02 1.09138139e-01 1.41475052e-01 2.12363005e-01
      2.50304937e-01 1.40690327e-01 4.47005630e-02 5.74141406e-02
      8.14804956e-02 1.95678174e-01 2.50304937e-01 2.50304937e-01
      1.35415465e-01 2.43898138e-01 2.43898138e-01 7.35978708e-02
      1.10707313e-01 9.34216976e-02 7.06690550e-02 1.00826964e-01
      1.31376907e-01 1.98486611e-01 2.43898138e-01 1.26624957e-01
      4.15581688e-02 5.63483275e-02 7.61695504e-02 1.72467589e-01
      2.43898138e-01 2.43898138e-01 1.68148309e-01 2.43898138e-01
      2.43898138e-01 7.25326687e-02 9.97842103e-02 1.11400969e-01
      8.45328271e-02 1.05956048e-01 1.38458535e-01 2.36101687e-01
      2.43898138e-01 1.38548195e-01 5.82818985e-02 5.31361066e-02
      7.99182057e-02 2.20612481e-01 2.43898138e-01 2.43898138e-01
      1.52070969e-01 2.39899471e-01 2.39899471e-01 6.63778111e-02
      9.40114111e-02 1.03545800e-01 7.65987411e-02 9.77189764e-02
      1.25050023e-01 2.14170918e-01 2.39899471e-01 1.31836548e-01
      5.34099489e-02 5.01775518e-02 7.53445700e-02 2.08664253e-01
      2.39899471e-01 2.25099802e-01 1.61513045e-01 2.39899471e-01
      2.39899471e-01 1.02891967e-01 1.27810866e-01 9.19550210e-02
      7.28002489e-02 1.08833112e-01 1.34380519e-01 2.21201524e-01
      2.39899471e-01 1.28621265e-01 5.63797317e-02 6.98269755e-02
      7.23621324e-02 2.39899471e-01 2.39899471e-01 2.39899471e-01</_>
    <_>
      2.96270996e-02 3.10490299e-02 2.06792112e-02 1.50890812e-01
      2.84602255e-01 7.14373067e-02 1.37293693e-02 1.16687985e-02
      1.18308635e-02 5.04832417e-02 5.27714752e-02 3.00397687e-02
      2.05887124e-01 2.84602255e-01 1.57128826e-01 1.90474931e-02
      1.29800905e-02 1.43699376e-02 2.84602255e-01 2.84602255e-01
      1.49762750e-01 1.48187846e-01 2.84602255e-01 8.40640739e-02
      4.65908535e-02 1.49401709e-01 1.28983200e-01 2.84602255e-01
      2.84602255e-01 1.20237455e-01 1.83119148e-01 2.84602255e-01
      1.26565561e-01 1.36803091e-01 2.36504287e-01 1.15191408e-01
      2.06100091e-01 2.41136894e-01 9.41586196e-02 9.44380239e-02
      2.41136894e-01 5.43881878e-02 2.99767852e-02 9.09019187e-02
      7.74942935e-02 2.08492398e-01 2.34426662e-01 7.52070621e-02
      1.21176578e-01 2.41136894e-01 8.36684257e-02 8.97001252e-02
      1.45694599e-01 6.88675195e-02 2.41136894e-01 2.41136894e-01
      2.10701242e-01 8.97871703e-02 1.19477674e-01 5.46076894e-02
      8.75905156e-02 2.41136894e-01 2.06408039e-01 2.25201264e-01
      2.41136894e-01 7.99241737e-02 6.03475310e-02 1.10941134e-01
      9.30000171e-02 2.41136894e-01 2.41136894e-01 1.85490817e-01
      2.45765284e-01 2.45765284e-01 1.74600929e-01 7.42503479e-02
      1.01333573e-01 4.64053005e-02 7.16975555e-02 2.16162041e-01
      1.73401743e-01 1.87706530e-01 2.23959386e-01 6.62753806e-02
      4.91323471e-02 9.15869996e-02 7.63951093e-02 2.09793046e-01
      2.45765284e-01 1.53762728e-01 2.42626935e-01 2.45765284e-01
      1.99328929e-01 4.48085368e-02 4.76859063e-02 3.58829051e-02
      9.03623179e-02 2.45765284e-01 2.22181454e-01 1.43909395e-01
      1.56819031e-01 5.10143749e-02 4.72942442e-02 8.52807239e-02
      8.14471170e-02 2.35129789e-01 2.45765284e-01 2.22876027e-01
      2.34970406e-01 2.46976361e-01 1.83194935e-01 4.31019291e-02
      4.75611314e-02 3.62354517e-02 8.51449370e-02 2.45561928e-01
      2.11233214e-01 1.36075243e-01 1.51805028e-01 4.85687293e-02
      4.66618128e-02 8.46281350e-02 7.73828551e-02 2.13698015e-01
      2.46976361e-01 2.11341858e-01 2.41160005e-01 2.46976361e-01
      2.16884702e-01 4.18013595e-02 3.81098613e-02 4.05894816e-02
      9.80085284e-02 2.46976361e-01 2.23963946e-01 1.58875898e-01
      1.14211097e-01 7.30768889e-02 7.48188719e-02 7.57560059e-02
      8.14993531e-02 2.43583560e-01 2.46976361e-01 2.14111090e-01
      2.22162426e-01 2.51212329e-01 2.10174620e-01 3.79000008e-02
      3.60821411e-02 3.82884629e-02 9.38348621e-02 2.51212329e-01
      2.06675023e-01 1.45101368e-01 1.10155120e-01 6.83011860e-02
      7.02174082e-02 7.22341835e-02 7.56327659e-02 2.34783962e-01
      2.51212329e-01 1.98145479e-01 2.51212329e-01 2.51212329e-01
      1.79232955e-01 5.14329150e-02 3.54549699e-02 4.03006747e-02
      1.12263821e-01 2.51212329e-01 2.15453371e-01 1.59101784e-01
      1.19855426e-01 5.86887896e-02 5.97330704e-02 7.82569349e-02
      9.68086571e-02 2.51212329e-01 2.51212329e-01 1.90804318e-01
      2.48894125e-01 2.51527518e-01 1.66714400e-01 4.54564914e-02
      3.17693241e-02 3.66149507e-02 1.02771901e-01 2.51527518e-01
      2.02531159e-01 1.50865197e-01 1.12931117e-01 5.51831275e-02
